{"learner":{"attributes":{"scikit_learn":"{\"_estimator_type\": \"classifier\"}"},"feature_names":["home_elo","away_elo","elo_diff","home_form","away_form","form_diff","h2h_val"],"feature_types":["float","float","float","float","float","float","float"],"gradient_booster":{"model":{"gbtree_model_param":{"num_parallel_tree":"1","num_trees":"300"},"iteration_indptr":[0,3,6,9,12,15,18,21,24,27,30,33,36,39,42,45,48,51,54,57,60,63,66,69,72,75,78,81,84,87,90,93,96,99,102,105,108,111,114,117,120,123,126,129,132,135,138,141,144,147,150,153,156,159,162,165,168,171,174,177,180,183,186,189,192,195,198,201,204,207,210,213,216,219,222,225,228,231,234,237,240,243,246,249,252,255,258,261,264,267,270,273,276,279,282,285,288,291,294,297,300],"tree_info":[0,1,2,0,1,2,0,1,2,0,1,2,0,1,2,0,1,2,0,1,2,0,1,2,0,1,2,0,1,2,0,1,2,0,1,2,0,1,2,0,1,2,0,1,2,0,1,2,0,1,2,0,1,2,0,1,2,0,1,2,0,1,2,0,1,2,0,1,2,0,1,2,0,1,2,0,1,2,0,1,2,0,1,2,0,1,2,0,1,2,0,1,2,0,1,2,0,1,2,0,1,2,0,1,2,0,1,2,0,1,2,0,1,2,0,1,2,0,1,2,0,1,2,0,1,2,0,1,2,0,1,2,0,1,2,0,1,2,0,1,2,0,1,2,0,1,2,0,1,2,0,1,2,0,1,2,0,1,2,0,1,2,0,1,2,0,1,2,0,1,2,0,1,2,0,1,2,0,1,2,0,1,2,0,1,2,0,1,2,0,1,2,0,1,2,0,1,2,0,1,2,0,1,2,0,1,2,0,1,2,0,1,2,0,1,2,0,1,2,0,1,2,0,1,2,0,1,2,0,1,2,0,1,2,0,1,2,0,1,2,0,1,2,0,1,2,0,1,2,0,1,2,0,1,2,0,1,2,0,1,2,0,1,2,0,1,2,0,1,2,0,1,2,0,1,2,0,1,2,0,1,2,0,1,2,0,1,2,0,1,2,0,1,2,0,1,2,0,1,2],"trees":[{"base_weights":[3.320867E-1,1.8250947E-1,5.385996E-1,-4.1095935E-2,3.672055E-1,6.3286E-1,-1.643836E-1,-1.2000005E-1,4.897959E-1,-3.692308E-1,4.854111E-1,3.794466E-1,8.6746985E-1,2.0689655E-2,-4.5283023E-1,1.153846E-2,-1.5207375E-2,5.1724136E-2,-1.0344829E-2,-2.837838E-2,-4.054056E-3,9.574466E-3,3.1836733E-2,-1.6216218E-2,2.3999998E-2,5.284974E-2,9.230767E-3,-2.9268295E-2,-1.2772424E-9],"categories":[],"categories_nodes":[],"categories_segments":[],"categories_sizes":[],"default_left":[0,0,0,0,0,0,0,0,0,0,0,0,0,0,0,0,0,0,0,0,0,0,0,0,0,0,0,0,0],"id":0,"left_children":[1,3,5,7,9,11,13,15,17,19,21,23,25,-1,27,-1,-1,-1,-1,-1,-1,-1,-1,-1,-1,-1,-1,-1,-1],"loss_changes":[4.4905243E0,3.6356394E0,4.2050056E0,1.7576294E0,4.3673434E0,2.9275608E0,1.5400933E0,2.4027224E0,2.2800844E0,3.6673594E-1,1.7411766E0,2.145002E0,3.3854237E0,0E0,3.5342836E-1,0E0,0E0,0E0,0E0,0E0,0E0,0E0,0E0,0E0,0E0,0E0,0E0,0E0,0E0],"parents":[2147483647,0,0,1,1,2,2,3,3,4,4,5,5,6,6,7,7,8,8,9,9,10,10,11,11,12,12,14,14],"right_children":[2,4,6,8,10,12,14,16,18,20,22,24,26,-1,28,-1,-1,-1,-1,-1,-1,-1,-1,-1,-1,-1,-1,-1,-1],"split_conditions":[1.5E0,1.487661E3,1.5403058E3,6.5E-1,-1.03942345E2,1.4E0,-7.126881E1,-5E-1,1.4579291E3,-1.295683E2,1.4676951E3,1.4366115E3,7.5561455E1,2.0689655E-2,1.580933E3,1.153846E-2,-1.5207375E-2,5.1724136E-2,-1.0344829E-2,-2.837838E-2,-4.054056E-3,9.574466E-3,3.1836733E-2,-1.6216218E-2,2.3999998E-2,5.284974E-2,9.230767E-3,-2.9268295E-2,-1.2772424E-9],"split_indices":[3,1,1,5,2,4,2,5,1,2,0,1,2,0,0,0,0,0,0,0,0,0,0,0,0,0,0,0,0],"split_type":[0,0,0,0,0,0,0,0,0,0,0,0,0,0,0,0,0,0,0,0,0,0,0,0,0,0,0,0,0],"sum_hessian":[1.4755554E2,8.6666664E1,6.0888885E1,3.9555553E1,4.7111107E1,5.3777775E1,7.1111107E0,3.511111E1,4.444444E0,6.222222E0,4.0888885E1,2.7111109E1,2.6666664E1,2.222222E0,4.8888884E0,1.1999999E1,2.311111E1,2.222222E0,2.222222E0,3.111111E0,3.111111E0,1.4666666E1,2.6222221E1,3.111111E0,2.3999998E1,2.0444443E1,6.222222E0,3.5555553E0,1.3333333E0],"tree_param":{"num_deleted":"0","num_feature":"7","num_nodes":"29","size_leaf_vector":"1"}},{"base_weights":[-3.4106213E-1,-1.2868637E-1,-4.1932175E-1,-3.050848E-1,2.926825E-2,-2.3076928E-1,-4.538746E-1,3.0612242E-1,-5.036497E-1,-3.0769235E-1,4.3298966E-1,-4.40367E-1,1.3043475E-1,-3.9360005E-1,-6.2436557E-1,-6.0000014E-3,2.7272725E-2,-3.2876715E-2,-1.4383564E-2,1.1999999E-2,-2.0792082E-2,3.6923077E-2,-7.317075E-3,-2.8235296E-2,-1.6255813E-9,-2.4000002E-2,1.981132E-2,-2.1533445E-2,4.285714E-2,-1.2772424E-9,-3.3243246E-2],"categories":[],"categories_nodes":[],"categories_segments":[],"categories_sizes":[],"default_left":[0,0,0,0,0,0,0,0,0,0,0,0,0,0,0,0,0,0,0,0,0,0,0,0,0,0,0,0,0,0,0],"id":1,"left_children":[1,3,5,7,9,11,13,15,17,19,21,23,25,27,29,-1,-1,-1,-1,-1,-1,-1,-1,-1,-1,-1,-1,-1,-1,-1,-1],"loss_changes":[2.4150963E0,1.1636937E0,5.9960747E-1,2.5410092E0,3.2318757E0,1.4790586E0,6.825371E-1,6.207049E-1,3.1676865E-1,8.6982465E-1,2.015404E0,6.63141E-1,1.4340935E0,3.5888395E0,5.534916E-1,0E0,0E0,0E0,0E0,0E0,0E0,0E0,0E0,0E0,0E0,0E0,0E0,0E0,0E0,0E0,0E0],"parents":[2147483647,0,0,1,1,2,2,3,3,4,4,5,5,6,6,7,7,8,8,9,9,10,10,11,11,12,12,13,13,14,14],"right_children":[2,4,6,8,10,12,14,16,18,20,22,24,26,28,30,-1,-1,-1,-1,-1,-1,-1,-1,-1,-1,-1,-1,-1,-1,-1,-1],"split_conditions":[1.4727916E3,-5.030458E1,4E-1,-1.03942345E2,1.4735316E3,1.0157559E1,1.5541982E3,2E0,-7.138693E1,2.5E-1,1.492412E3,1.6666667E-1,1.4420952E3,1.5516143E3,1.4366115E3,-6.0000014E-3,2.7272725E-2,-3.2876715E-2,-1.4383564E-2,1.1999999E-2,-2.0792082E-2,3.6923077E-2,-7.317075E-3,-2.8235296E-2,-1.6255813E-9,-2.4000002E-2,1.981132E-2,-2.1533445E-2,4.285714E-2,-1.2772424E-9,-3.3243246E-2],"split_indices":[0,2,6,2,1,2,0,4,2,4,1,6,1,0,1,0,0,0,0,0,0,0,0,0,0,0,0,0,0,0,0],"split_type":[0,0,0,0,0,0,0,0,0,0,0,0,0,0,0,0,0,0,0,0,0,0,0,0,0,0,0,0,0,0,0],"sum_hessian":[1.4755554E2,4.0444443E1,1.0711111E2,1.8666666E1,2.1777777E1,1.7777777E1,8.933333E1,4.444444E0,1.4222221E1,1.1999999E1,9.777777E0,1.1111111E1,6.666666E0,6.844444E1,2.0888887E1,1.7777777E0,2.6666665E0,7.1111107E0,7.1111107E0,1.7777777E0,1.0222221E1,6.222222E0,3.5555553E0,8.444444E0,2.6666665E0,1.7777777E0,4.8888884E0,6.711111E1,1.3333333E0,1.3333333E0,1.9555553E1],"tree_param":{"num_deleted":"0","num_feature":"7","num_nodes":"31","size_leaf_vector":"1"}},{"base_weights":[8.975274E-3,3.1304345E-1,-9.590414E-2,3.647416E-1,-2.4000002E-2,-1.8819194E-1,2.8934008E-1,6.330275E-1,2.2270739E-1,-6.804128E-2,-3.5608312E-1,1.03448234E-1,6.8852454E-1,-6.0000014E-3,3.8709678E-2,-2.9702992E-3,2.0802919E-2,-1.2875539E-2,5.172412E-3,-2.4137935E-2,3.5294096E-3,2.5324672E-2,-1.5584419E-2,-1.2772424E-9,4.2857144E-2],"categories":[],"categories_nodes":[],"categories_segments":[],"categories_sizes":[],"default_left":[0,0,0,0,0,0,0,0,0,0,0,0,0,0,0,0,0,0,0,0,0,0,0,0,0],"id":2,"left_children":[1,3,5,7,-1,9,11,13,15,17,19,21,23,-1,-1,-1,-1,-1,-1,-1,-1,-1,-1,-1,-1],"loss_changes":[4.7675314E0,1.7466998E0,4.0087724E0,1.251998E0,0E0,1.797997E0,1.5530411E0,1.3803368E0,1.4126315E0,1.7775985E0,2.0579052E0,2.8535602E0,7.868855E-1,0E0,0E0,0E0,0E0,0E0,0E0,0E0,0E0,0E0,0E0,0E0,0E0],"parents":[2147483647,0,0,1,1,2,2,3,3,5,5,6,6,7,7,8,8,9,9,10,10,11,11,12,12],"right_children":[2,4,6,8,-1,10,12,14,16,18,20,22,24,-1,-1,-1,-1,-1,-1,-1,-1,-1,-1,-1,-1],"split_conditions":[1.4690089E3,1.75E0,1.5429796E3,2.5515617E1,-2.4000002E-2,1.6E0,1.8E0,4E-1,6.582596E1,-5E-1,7.5561455E1,1.4850607E3,1.25E0,-6.0000014E-3,3.8709678E-2,-2.9702992E-3,2.0802919E-2,-1.2875539E-2,5.172412E-3,-2.4137935E-2,3.5294096E-3,2.5324672E-2,-1.5584419E-2,-1.2772424E-9,4.2857144E-2],"split_indices":[1,4,1,2,0,3,3,3,2,5,2,0,4,0,0,0,0,0,0,0,0,0,0,0,0],"split_type":[0,0,0,0,0,0,0,0,0,0,0,0,0,0,0,0,0,0,0,0,0,0,0,0,0],"sum_hessian":[1.4755554E2,3.7333332E1,1.1022221E2,3.5555553E1,1.7777777E0,8.933333E1,2.0888887E1,1.1111111E1,2.4444443E1,5.2888885E1,3.6444443E1,1.5111111E1,5.7777777E0,1.7777777E0,9.333333E0,1.0222221E1,1.4222221E1,2.4888887E1,2.7999998E1,2.7999998E1,8.444444E0,7.5555553E0,7.5555553E0,1.3333333E0,4.444444E0],"tree_param":{"num_deleted":"0","num_feature":"7","num_nodes":"25","size_leaf_vector":"1"}},{"base_weights":[3.1746796E-1,1.7468981E-1,5.130932E-1,-4.017644E-2,3.5050234E-1,6.017481E-1,-1.5987039E-1,-1.629697E-1,2.9434013E-1,-3.6164558E-1,4.6280396E-1,3.6146384E-1,8.222881E-1,2.0367725E-2,-4.4603688E-1,2.0285606E-2,-1.2148871E-2,2.6762385E-2,-3.0301346E-3,-2.7934214E-2,-3.8971924E-3,9.0623265E-3,3.0340735E-2,-1.596102E-2,2.2868102E-2,4.998615E-2,8.697523E-3,-2.8987085E-2,3.2792776E-4],"categories":[],"categories_nodes":[],"categories_segments":[],"categories_sizes":[],"default_left":[0,0,0,0,0,0,0,0,0,0,0,0,0,0,0,0,0,0,0,0,0,0,0,0,0,0,0,0,0],"id":3,"left_children":[1,3,5,7,9,11,13,15,17,19,21,23,25,-1,27,-1,-1,-1,-1,-1,-1,-1,-1,-1,-1,-1,-1,-1,-1],"loss_changes":[4.091791E0,3.3405929E0,3.8338223E0,1.7125906E0,4.0488467E0,2.6472702E0,1.4936393E0,1.476615E0,9.933669E-1,3.57386E-1,1.6076441E0,1.9983065E0,3.0688152E0,0E0,3.5777938E-1,0E0,0E0,0E0,0E0,0E0,0E0,0E0,0E0,0E0,0E0,0E0,0E0,0E0,0E0],"parents":[2147483647,0,0,1,1,2,2,3,3,4,4,5,5,6,6,7,7,8,8,9,9,10,10,11,11,12,12,14,14],"right_children":[2,4,6,8,10,12,14,16,18,20,22,24,26,-1,28,-1,-1,-1,-1,-1,-1,-1,-1,-1,-1,-1,-1,-1,-1],"split_conditions":[1.5E0,1.487661E3,1.5403058E3,1.5005005E3,-1.03942345E2,1.4E0,-7.126881E1,1.4373225E3,8E-1,-1.295683E2,1.4676951E3,1.4366115E3,7.5561455E1,2.0367725E-2,5.833333E-1,2.0285606E-2,-1.2148871E-2,2.6762385E-2,-3.0301346E-3,-2.7934214E-2,-3.8971924E-3,9.0623265E-3,3.0340735E-2,-1.596102E-2,2.2868102E-2,4.998615E-2,8.697523E-3,-2.8987085E-2,3.2792776E-4],"split_indices":[3,1,1,0,2,4,2,1,6,2,0,1,2,0,6,0,0,0,0,0,0,0,0,0,0,0,0,0,0],"split_type":[0,0,0,0,0,0,0,0,0,0,0,0,0,0,0,0,0,0,0,0,0,0,0,0,0,0,0,0,0],"sum_hessian":[1.487055E2,8.7058426E1,6.1647083E1,3.9525047E1,4.753338E1,5.4564663E1,7.082419E0,2.9287214E1,1.0237834E1,6.1722784E0,4.13611E1,2.7376371E1,2.7188293E1,2.2329297E0,4.849489E0,3.110115E0,2.61771E1,5.795986E0,4.441848E0,3.0704792E0,3.1017992E0,1.4760733E1,2.6600367E1,3.093068E0,2.4283304E1,2.0920784E1,6.2675095E0,3.5267086E0,1.3227804E0],"tree_param":{"num_deleted":"0","num_feature":"7","num_nodes":"29","size_leaf_vector":"1"}},{"base_weights":[-3.31511E-1,-1.2360432E-1,-4.0861863E-1,-2.979032E-1,3.1648427E-2,-2.2333837E-1,-4.427493E-1,2.991553E-1,-4.945379E-1,-2.9881933E-1,4.2214546E-1,-4.3081284E-1,1.3055053E-1,-3.8290387E-1,-6.128326E-1,-5.928851E-3,2.6610358E-2,-3.2375697E-2,-1.4068094E-2,1.1962268E-2,-2.0319467E-2,-7.701794E-3,3.6385268E-2,-2.772947E-2,1.3721245E-4,-2.3659728E-2,1.9521384E-2,-2.0990845E-2,4.187417E-2,4.678217E-4,-3.2688156E-2],"categories":[],"categories_nodes":[],"categories_segments":[],"categories_sizes":[],"default_left":[0,0,0,0,0,0,0,0,0,0,0,0,0,0,0,0,0,0,0,0,0,0,0,0,0,0,0,0,0,0,0],"id":4,"left_children":[1,3,5,7,9,11,13,15,17,19,21,23,25,27,29,-1,-1,-1,-1,-1,-1,-1,-1,-1,-1,-1,-1,-1,-1,-1,-1],"loss_changes":[2.310789E0,1.1265485E0,5.7783127E-1,2.4424973E0,3.0604296E0,1.4266194E0,6.747837E-1,5.951556E-1,3.095603E-1,8.439448E-1,2.0200212E0,6.4541864E-1,1.3874667E0,3.448985E0,5.559349E-1,0E0,0E0,0E0,0E0,0E0,0E0,0E0,0E0,0E0,0E0,0E0,0E0,0E0,0E0,0E0,0E0],"parents":[2147483647,0,0,1,1,2,2,3,3,4,4,5,5,6,6,7,7,8,8,9,9,10,10,11,11,12,12,13,13,14,14],"right_children":[2,4,6,8,10,12,14,16,18,20,22,24,26,28,30,-1,-1,-1,-1,-1,-1,-1,-1,-1,-1,-1,-1,-1,-1,-1,-1],"split_conditions":[1.4727916E3,-5.030458E1,4E-1,-1.03942345E2,1.4735316E3,1.0157559E1,1.5541982E3,2E0,-7.138693E1,2.5E-1,3.75E-1,1.6666667E-1,1.4420952E3,1.5516143E3,1E0,-5.928851E-3,2.6610358E-2,-3.2375697E-2,-1.4068094E-2,1.1962268E-2,-2.0319467E-2,-7.701794E-3,3.6385268E-2,-2.772947E-2,1.3721245E-4,-2.3659728E-2,1.9521384E-2,-2.0990845E-2,4.187417E-2,4.678217E-4,-3.2688156E-2],"split_indices":[0,2,6,2,1,2,0,4,2,4,6,6,1,0,3,0,0,0,0,0,0,0,0,0,0,0,0,0,0,0,0],"split_type":[0,0,0,0,0,0,0,0,0,0,0,0,0,0,0,0,0,0,0,0,0,0,0,0,0,0,0,0,0,0,0],"sum_hessian":[1.4629391E2,4.0282513E1,1.06011406E2,1.854435E1,2.1738165E1,1.7664154E1,8.834725E1,4.465128E0,1.4079221E1,1.1901228E1,9.836937E0,1.0998622E1,6.665531E0,6.775742E1,2.0589827E1,1.7749065E0,2.6902213E0,7.010787E0,7.068434E0,1.7789311E0,1.0122297E1,3.580753E0,6.256184E0,8.338808E0,2.6598144E0,1.7587572E0,4.906774E0,6.640488E1,1.3525487E0,1.3185042E0,1.9271322E1],"tree_param":{"num_deleted":"0","num_feature":"7","num_nodes":"31","size_leaf_vector":"1"}},{"base_weights":[8.770585E-3,2.9993746E-1,-9.262529E-2,3.9679098E-1,-1.3927189E-1,-1.825533E-1,2.7899525E-1,4.7035316E-1,-1.4742728E-1,-4.3415877E-1,2.0059545E-2,-6.645644E-2,-3.460436E-1,9.9258654E-2,6.6148317E-1,7.3377066E-3,3.171445E-2,2.1018034E-2,-2.5764296E-2,-5.7758106E-4,-2.8494773E-2,-1.2539837E-2,4.952515E-3,-2.3519218E-2,3.3289313E-3,2.447826E-2,-1.5370329E-2,4.131077E-2,-3.984313E-4],"categories":[],"categories_nodes":[],"categories_segments":[],"categories_sizes":[],"default_left":[0,0,0,0,0,0,0,0,0,0,0,0,0,0,0,0,0,0,0,0,0,0,0,0,0,0,0,0,0],"id":5,"left_children":[1,3,5,7,9,11,13,15,17,19,-1,21,23,25,27,-1,-1,-1,-1,-1,-1,-1,-1,-1,-1,-1,-1,-1,-1],"loss_changes":[4.4133787E0,1.6974657E0,3.7585526E0,1.3460064E0,1.4037813E0,1.6839671E0,1.44758E0,1.4098597E0,1.1687433E0,3.0730164E-1,0E0,1.6670399E0,1.93506E0,2.7141027E0,7.631421E-1,0E0,0E0,0E0,0E0,0E0,0E0,0E0,0E0,0E0,0E0,0E0,0E0,0E0,0E0],"parents":[2147483647,0,0,1,1,2,2,3,3,4,4,5,5,6,6,7,7,8,8,9,9,11,11,12,12,13,13,14,14],"right_children":[2,4,6,8,10,12,14,16,18,20,-1,22,24,26,28,-1,-1,-1,-1,-1,-1,-1,-1,-1,-1,-1,-1,-1,-1],"split_conditions":[1.4690089E3,1.5642012E3,1.5429796E3,1.25E0,2.3333333E0,1.6E0,1.8E0,8E-1,1.6604984E1,1.290313E2,2.0059545E-2,-5E-1,7.5561455E1,1.4850607E3,5.833333E-1,7.3377066E-3,3.171445E-2,2.1018034E-2,-2.5764296E-2,-5.7758106E-4,-2.8494773E-2,-1.2539837E-2,4.952515E-3,-2.3519218E-2,3.3289313E-3,2.447826E-2,-1.5370329E-2,4.131077E-2,-3.984313E-4],"split_indices":[1,0,1,4,3,3,3,4,2,2,0,5,2,0,6,0,0,0,0,0,0,0,0,0,0,0,0,0,0],"split_type":[0,0,0,0,0,0,0,0,0,0,0,0,0,0,0,0,0,0,0,0,0,0,0,0,0,0,0,0,0],"sum_hessian":[1.4754788E2,3.76047E1,1.09943184E2,3.0889576E1,6.715124E0,8.893151E1,2.101167E1,2.7330965E1,3.5586104E0,4.471874E0,2.24325E0,5.282569E1,3.610582E1,1.5151343E1,5.8603263E0,9.827431E0,1.7503534E1,1.3429896E0,2.215621E0,1.3509339E0,3.1209404E0,2.474715E1,2.8078539E1,2.7637476E1,8.468345E0,7.6271515E0,7.5241914E0,4.515122E0,1.345204E0],"tree_param":{"num_deleted":"0","num_feature":"7","num_nodes":"29","size_leaf_vector":"1"}},{"base_weights":[3.0370715E-1,1.7197114E-1,4.968993E-1,-1.6552929E-2,3.3513555E-1,5.857351E-1,-1.553902E-1,-1.4537916E-1,2.9021347E-1,-3.5434142E-1,4.4206518E-1,2.8606001E-2,6.77416E-1,2.0062119E-2,-4.3938404E-1,1.9741302E-2,-1.09987175E-2,2.39507E-2,-3.1642162E-3,-2.751113E-2,-3.7453417E-3,8.592439E-3,2.8974814E-2,3.50127E-2,-1.6004017E-2,1.0095845E-2,3.7150934E-2,-2.8656343E-2,4.653159E-4],"categories":[],"categories_nodes":[],"categories_segments":[],"categories_sizes":[],"default_left":[0,0,0,0,0,0,0,0,0,0,0,0,0,0,0,0,0,0,0,0,0,0,0,0,0,0,0,0,0],"id":6,"left_children":[1,3,5,7,9,11,13,15,17,19,21,23,25,-1,27,-1,-1,-1,-1,-1,-1,-1,-1,-1,-1,-1,-1,-1,-1],"loss_changes":[3.7505035E0,2.8091893E0,3.601344E0,1.750978E0,3.7622213E0,2.714676E0,1.4491059E0,1.3407788E0,9.0606153E-1,3.4857976E-1,1.4892502E0,2.2400315E0,1.2823734E0,0E0,3.5391605E-1,0E0,0E0,0E0,0E0,0E0,0E0,0E0,0E0,0E0,0E0,0E0,0E0,0E0,0E0],"parents":[2147483647,0,0,1,1,2,2,3,3,4,4,5,5,6,6,7,7,8,8,9,9,10,10,11,11,12,12,14,14],"right_children":[2,4,6,8,10,12,14,16,18,20,22,24,26,-1,28,-1,-1,-1,-1,-1,-1,-1,-1,-1,-1,-1,-1,-1,-1],"split_conditions":[1.6E0,1.487661E3,1.5403058E3,1.5005005E3,-1.03942345E2,1.4550364E3,-7.126881E1,1.4373225E3,8E-1,-1.295683E2,1.4676951E3,1.5041664E3,5E-1,2.0062119E-2,1.580933E3,1.9741302E-2,-1.09987175E-2,2.39507E-2,-3.1642162E-3,-2.751113E-2,-3.7453417E-3,8.592439E-3,2.8974814E-2,3.50127E-2,-1.6004017E-2,1.0095845E-2,3.7150934E-2,-2.8656343E-2,4.653159E-4],"split_indices":[3,1,1,0,2,1,2,1,6,2,0,0,6,0,0,0,0,0,0,0,0,0,0,0,0,0,0,0,0],"split_type":[0,0,0,0,0,0,0,0,0,0,0,0,0,0,0,0,0,0,0,0,0,0,0,0,0,0,0,0,0],"sum_hessian":[1.4972302E2,9.014447E1,5.9578564E1,4.2239025E1,4.790544E1,5.2526917E1,7.0516477E0,3.0117363E1,1.2121663E1,6.1213713E0,4.178407E1,7.6077795E0,4.4919136E1,2.2428226E0,4.808825E0,3.1333416E0,2.6984022E1,7.6700683E0,4.451595E0,3.029007E0,3.0923643E0,1.48454485E1,2.693862E1,2.255301E0,5.3524785E0,5.9403515E0,3.8978783E1,3.4909363E0,1.3178887E0],"tree_param":{"num_deleted":"0","num_feature":"7","num_nodes":"29","size_leaf_vector":"1"}},{"base_weights":[-3.22282E-1,-1.1957313E-1,-3.9800793E-1,-2.4768004E-1,8.724599E-2,-2.1567489E-1,-4.3177348E-1,2.925501E-1,-3.7586364E-1,-2.5871307E-1,8.1813174E-1,-4.2133206E-1,1.3148372E-1,-3.7187132E-1,-6.0272145E-1,-5.851625E-3,2.5977826E-2,-2.882511E-2,-7.261291E-3,1.1849917E-2,-1.8450726E-2,1.1287601E-2,5.216601E-2,-2.722976E-2,2.6962717E-4,-2.3287008E-2,1.9263556E-2,-2.043636E-2,4.118974E-2,5.8032665E-4,-3.2184638E-2],"categories":[],"categories_nodes":[],"categories_segments":[],"categories_sizes":[],"default_left":[0,0,0,0,0,0,0,0,0,0,0,0,0,0,0,0,0,0,0,0,0,0,0,0,0,0,0,0,0,0,0],"id":7,"left_children":[1,3,5,7,9,11,13,15,17,19,21,23,25,27,29,-1,-1,-1,-1,-1,-1,-1,-1,-1,-1,-1,-1,-1,-1,-1,-1],"loss_changes":[2.1937065E0,1.1116059E0,5.5867577E-1,1.8871968E0,4.377521E0,1.3790967E0,6.8037605E-1,5.707042E-1,8.964009E-1,7.404132E-1,5.025878E-1,6.2786174E-1,1.3403674E0,3.3341866E0,5.438242E-1,0E0,0E0,0E0,0E0,0E0,0E0,0E0,0E0,0E0,0E0,0E0,0E0,0E0,0E0,0E0,0E0],"parents":[2147483647,0,0,1,1,2,2,3,3,4,4,5,5,6,6,7,7,8,8,9,9,10,10,11,11,12,12,13,13,14,14],"right_children":[2,4,6,8,10,12,14,16,18,20,22,24,26,28,30,-1,-1,-1,-1,-1,-1,-1,-1,-1,-1,-1,-1,-1,-1,-1,-1],"split_conditions":[1.4727916E3,-3.015255E1,4E-1,-1.03942345E2,1.4735316E3,1.0157559E1,1.5541982E3,2E0,-6.1379017E1,2.5E-1,3.75E-1,1.6666667E-1,1.4420952E3,1.5516143E3,-7.5E-1,-5.851625E-3,2.5977826E-2,-2.882511E-2,-7.261291E-3,1.1849917E-2,-1.8450726E-2,1.1287601E-2,5.216601E-2,-2.722976E-2,2.6962717E-4,-2.3287008E-2,1.9263556E-2,-2.043636E-2,4.118974E-2,5.8032665E-4,-3.2184638E-2],"split_indices":[0,2,6,2,1,2,0,4,2,4,6,6,1,0,5,0,0,0,0,0,0,0,0,0,0,0,0,0,0,0,0],"split_type":[0,0,0,0,0,0,0,0,0,0,0,0,0,0,0,0,0,0,0,0,0,0,0,0,0,0,0,0,0,0,0],"sum_hessian":[1.4500992E2,4.013978E1,1.0487015E2,2.4664587E1,1.5475189E1,1.754032E1,8.732983E1,4.4840927E0,2.0180494E1,1.0941937E1,4.5332522E0,1.0880839E1,6.6594806E0,6.702044E1,2.0309387E1,1.771774E0,2.712319E0,9.990163E0,1.0190331E1,1.7824944E0,9.159443E0,1.8001878E0,2.7330644E0,8.227914E0,2.6529255E0,1.7369211E0,4.9225597E0,6.5654816E1,1.3656214E0,1.3146144E0,1.8994772E1],"tree_param":{"num_deleted":"0","num_feature":"7","num_nodes":"31","size_leaf_vector":"1"}},{"base_weights":[8.624993E-3,2.7161327E-1,-9.5582135E-2,3.27112E-1,-2.5532026E-2,-1.8833634E-1,2.6921934E-1,4.9593946E-1,1.4508139E-1,-7.948806E-2,-3.44552E-1,9.53323E-2,6.36239E-1,-4.377984E-3,3.0320888E-2,-3.793578E-3,3.526687E-2,-7.2304136E-3,1.332129E-2,-2.2243291E-2,-3.7098152E-4,2.3680069E-2,-1.5157029E-2,-4.8397668E-4,3.9686065E-2],"categories":[],"categories_nodes":[],"categories_segments":[],"categories_sizes":[],"default_left":[0,0,0,0,0,0,0,0,0,0,0,0,0,0,0,0,0,0,0,0,0,0,0,0,0],"id":8,"left_children":[1,3,5,7,-1,9,11,13,15,17,19,21,23,-1,-1,-1,-1,-1,-1,-1,-1,-1,-1,-1,-1],"loss_changes":[4.095306E0,2.0077915E0,3.6742206E0,1.1634836E0,0E0,1.4343903E0,1.3510506E0,1.3709474E0,2.6230793E0,1.2090906E0,1.1804566E0,2.5831823E0,7.1309376E-1,0E0,0E0,0E0,0E0,0E0,0E0,0E0,0E0,0E0,0E0,0E0,0E0],"parents":[2147483647,0,0,1,1,2,2,3,3,5,5,6,6,7,7,8,8,9,9,10,10,11,11,12,12],"right_children":[2,4,6,8,-1,10,12,14,16,18,20,22,24,-1,-1,-1,-1,-1,-1,-1,-1,-1,-1,-1,-1],"split_conditions":[1.4703928E3,1.75E0,1.5429796E3,1.4932008E3,-2.5532026E-2,1.6E0,1.8E0,1.4373225E3,2.2E0,7.5E-1,7.5561455E1,1.4850607E3,1.25E0,-4.377984E-3,3.0320888E-2,-3.793578E-3,3.526687E-2,-7.2304136E-3,1.332129E-2,-2.2243291E-2,-3.7098152E-4,2.3680069E-2,-1.5157029E-2,-4.8397668E-4,3.9686065E-2],"split_indices":[1,4,1,0,0,3,3,1,3,6,2,0,4,0,0,0,0,0,0,0,0,0,0,0,0],"split_type":[0,0,0,0,0,0,0,0,0,0,0,0,0,0,0,0,0,0,0,0,0,0,0,0,0],"sum_hessian":[1.4748776E2,4.1399944E1,1.06087814E2,3.9200603E1,2.1993396E0,8.4967705E1,2.1120111E1,1.9443192E1,1.9757412E1,5.0965023E1,3.400268E1,1.5185332E1,5.9347787E0,3.1282995E0,1.6314892E1,1.4789376E1,4.9680357E0,4.3380375E1,7.5846453E0,2.5959013E1,8.043668E0,7.693436E0,7.491896E0,1.3473046E0,4.5874743E0],"tree_param":{"num_deleted":"0","num_feature":"7","num_nodes":"25","size_leaf_vector":"1"}},{"base_weights":[2.9059875E-1,1.644051E-1,4.7463092E-1,-1.6886849E-2,3.2019976E-1,5.585309E-1,-1.509391E-1,-1.4155856E-1,2.771325E-1,-3.4718746E-1,4.2203635E-1,2.620664E-2,6.4515144E-1,1.9770032E-2,-4.3284935E-1,1.9100796E-2,-1.0733156E-2,2.2957256E-2,-3.2699239E-3,-2.7107432E-2,-3.5861977E-3,8.114305E-3,2.7678177E-2,3.3953216E-2,-1.582626E-2,9.709253E-3,3.533594E-2,6.582467E-4,-2.8351102E-2],"categories":[],"categories_nodes":[],"categories_segments":[],"categories_sizes":[],"default_left":[0,0,0,0,0,0,0,0,0,0,0,0,0,0,0,0,0,0,0,0,0,0,0,0,0,0,0,0,0],"id":9,"left_children":[1,3,5,7,9,11,13,15,17,19,21,23,25,-1,27,-1,-1,-1,-1,-1,-1,-1,-1,-1,-1,-1,-1,-1,-1],"loss_changes":[3.443489E0,2.5892758E0,3.293889E0,1.6239166E0,3.493867E0,2.4791813E0,1.4062141E0,1.2693352E0,8.536613E-1,3.4075236E-1,1.3854575E0,2.1433072E0,1.1542435E0,0E0,3.5257483E-1,0E0,0E0,0E0,0E0,0E0,0E0,0E0,0E0,0E0,0E0,0E0,0E0,0E0,0E0],"parents":[2147483647,0,0,1,1,2,2,3,3,4,4,5,5,6,6,7,7,8,8,9,9,10,10,11,11,12,12,14,14],"right_children":[2,4,6,8,10,12,14,16,18,20,22,24,26,-1,28,-1,-1,-1,-1,-1,-1,-1,-1,-1,-1,-1,-1,-1,-1],"split_conditions":[1.6E0,1.487661E3,1.5403058E3,1.5005005E3,-1.03942345E2,1.4550364E3,-7.126881E1,1.4373225E3,8E-1,-1.295683E2,1.4676951E3,1.5041664E3,5E-1,1.9770032E-2,1.25E0,1.9100796E-2,-1.0733156E-2,2.2957256E-2,-3.2699239E-3,-2.7107432E-2,-3.5861977E-3,8.114305E-3,2.7678177E-2,3.3953216E-2,-1.582626E-2,9.709253E-3,3.533594E-2,6.582467E-4,-2.8351102E-2],"split_indices":[3,1,1,0,2,1,2,1,6,2,0,0,6,0,4,0,0,0,0,0,0,0,0,0,0,0,0,0,0],"split_type":[0,0,0,0,0,0,0,0,0,0,0,0,0,0,0,0,0,0,0,0,0,0,0,0,0,0,0,0,0],"sum_hessian":[1.5063484E2,9.048278E1,6.0152065E1,4.223141E1,4.825137E1,5.3133137E1,7.0189276E0,3.0020494E1,1.2210916E1,6.0689807E0,4.2182392E1,7.618201E0,4.551494E1,2.2519977E0,4.76693E0,3.1603649E0,2.6860128E1,7.7515063E0,4.459409E0,2.9868705E0,3.0821102E0,1.4930443E1,2.7251947E1,2.2847447E0,5.333456E0,5.966406E0,3.954853E1,1.3109559E0,3.455974E0],"tree_param":{"num_deleted":"0","num_feature":"7","num_nodes":"29","size_leaf_vector":"1"}},{"base_weights":[-3.1329003E-1,-1.1478388E-1,-3.8793632E-1,-2.4169937E-1,8.923314E-2,-5.974984E-1,-3.532443E-1,2.865207E-1,-3.6841992E-1,-2.5041074E-1,7.939385E-1,-4.7052987E-3,-3.3178594E-2,1.333123E-2,-3.680559E-1,-5.7689315E-3,2.5392665E-2,-2.8384862E-2,-7.0666084E-3,1.18026575E-2,-1.8001925E-2,1.0959516E-2,5.0571185E-2,-1.5415922E-2,-2.6212806E-2],"categories":[],"categories_nodes":[],"categories_segments":[],"categories_sizes":[],"default_left":[0,0,0,0,0,0,0,0,0,0,0,0,0,0,0,0,0,0,0,0,0,0,0,0,0],"id":10,"left_children":[1,3,5,7,9,11,13,15,17,19,21,-1,-1,-1,23,-1,-1,-1,-1,-1,-1,-1,-1,-1,-1],"loss_changes":[2.0995646E0,1.0822133E0,5.5037403E-1,1.8139652E0,4.1336904E0,3.8423157E-1,9.4561195E-1,5.47909E-1,8.710859E-1,7.171375E-1,4.7659922E-1,0E0,0E0,0E0,6.834831E-1,0E0,0E0,0E0,0E0,0E0,0E0,0E0,0E0,0E0,0E0],"parents":[2147483647,0,0,1,1,2,2,3,3,4,4,5,5,6,6,7,7,8,8,9,9,10,10,14,14],"right_children":[2,4,6,8,10,12,14,16,18,20,22,-1,-1,-1,24,-1,-1,-1,-1,-1,-1,-1,-1,-1,-1],"split_conditions":[1.4727916E3,-3.015255E1,1.484E3,-1.03942345E2,1.4735316E3,7.5E-1,1.4843245E3,2E0,-6.1379017E1,2.5E-1,3.75E-1,-4.7052987E-3,-3.3178594E-2,1.333123E-2,1.5541982E3,-5.7689315E-3,2.5392665E-2,-2.8384862E-2,-7.0666084E-3,1.18026575E-2,-1.8001925E-2,1.0959516E-2,5.0571185E-2,-1.5415922E-2,-2.6212806E-2],"split_indices":[0,2,0,2,1,4,0,4,2,4,6,0,0,0,0,0,0,0,0,0,0,0,0,0,0],"split_type":[0,0,0,0,0,0,0,0,0,0,0,0,0,0,0,0,0,0,0,0,0,0,0,0,0],"sum_hessian":[1.4369763E2,3.996277E1,1.03734856E2,2.4522835E1,1.5439936E1,1.2429543E1,9.130531E1,4.5007854E0,2.0022049E1,1.0853553E1,4.5863824E0,1.7234423E0,1.07061E1,1.7340461E0,8.9571266E1,1.7684016E0,2.7323837E0,9.865145E0,1.0156905E1,1.7839962E0,9.069557E0,1.8102566E0,2.776126E0,6.6943245E1,2.2628027E1],"tree_param":{"num_deleted":"0","num_feature":"7","num_nodes":"25","size_leaf_vector":"1"}},{"base_weights":[8.541081E-3,2.7704006E-1,-8.657586E-2,3.6979738E-1,-1.456686E-1,-1.7204136E-1,2.602571E-1,4.3887153E-1,-1.4751996E-1,-4.3131983E-1,1.8618176E-2,8.32014E-2,-2.4378294E-1,9.1973804E-2,6.127093E-1,6.686531E-3,2.9607464E-2,2.0115448E-2,-2.5419017E-2,-6.5180793E-4,-2.8303979E-2,1.2761414E-2,-2.8821E-2,-1.4996352E-2,6.206765E-3,2.2937981E-2,-1.4929356E-2,3.8330395E-2,-8.099956E-4],"categories":[],"categories_nodes":[],"categories_segments":[],"categories_sizes":[],"default_left":[0,0,0,0,0,0,0,0,0,0,0,0,0,0,0,0,0,0,0,0,0,0,0,0,0,0,0,0,0],"id":11,"left_children":[1,3,5,7,9,11,13,15,17,19,-1,21,23,25,27,-1,-1,-1,-1,-1,-1,-1,-1,-1,-1,-1,-1,-1,-1],"loss_changes":[3.8137326E0,1.5852015E0,3.3153942E0,1.2192836E0,1.3067383E0,1.6522954E0,1.261051E0,1.265749E0,1.1081693E0,3.001498E-1,0E0,2.4505997E0,1.479567E0,2.4591198E0,6.900673E-1,0E0,0E0,0E0,0E0,0E0,0E0,0E0,0E0,0E0,0E0,0E0,0E0,0E0,0E0],"parents":[2147483647,0,0,1,1,2,2,3,3,4,4,5,5,6,6,7,7,8,8,9,9,11,11,12,12,13,13,14,14],"right_children":[2,4,6,8,10,12,14,16,18,20,-1,22,24,26,28,-1,-1,-1,-1,-1,-1,-1,-1,-1,-1,-1,-1,-1,-1],"split_conditions":[1.4690089E3,1.5642012E3,1.5429796E3,1.25E0,2.3333333E0,5E-1,1.8E0,8E-1,1.463302E3,1.290313E2,1.8618176E-2,1.5212341E3,7.5561455E1,1.4850607E3,5.833333E-1,6.686531E-3,2.9607464E-2,2.0115448E-2,-2.5419017E-2,-6.5180793E-4,-2.8303979E-2,1.2761414E-2,-2.8821E-2,-1.4996352E-2,6.206765E-3,2.2937981E-2,-1.4929356E-2,3.8330395E-2,-8.099956E-4],"split_indices":[1,0,1,4,3,6,3,4,0,2,0,1,2,0,6,0,0,0,0,0,0,0,0,0,0,0,0,0,0],"split_type":[0,0,0,0,0,0,0,0,0,0,0,0,0,0,0,0,0,0,0,0,0,0,0,0,0,0,0,0,0],"sum_hessian":[1.4739175E2,3.8055344E1,1.093364E2,3.130999E1,6.7453547E0,8.81249E1,2.1211498E1,2.77556E1,3.5543911E0,4.4557633E0,2.2895916E0,1.9299885E1,6.882502E1,1.5210152E1,6.0013475E0,9.906499E0,1.78491E1,1.3629131E0,2.191478E0,1.3529739E0,3.1027892E0,1.5793949E1,3.5059361E0,5.9873207E1,8.951813E0,7.75377E0,7.4563813E0,4.64559E0,1.3557576E0],"tree_param":{"num_deleted":"0","num_feature":"7","num_nodes":"29","size_leaf_vector":"1"}},{"base_weights":[2.783143E-1,1.5637127E-1,4.555264E-1,-1.8028572E-2,3.053303E-1,5.35283E-1,-1.4690608E-1,-1.3874905E-1,2.6429045E-1,-3.405153E-1,4.0236345E-1,6.4983433E-1,1.4933316E-1,1.9522795E-2,-4.2703426E-1,1.8736772E-2,-1.0547915E-2,2.203436E-2,-3.4294613E-3,-2.671176E-2,-3.4711235E-3,6.4834864E-3,2.5830528E-2,3.46136E-2,-8.438127E-3,-2.1819988E-2,2.3840312E-2,-2.8082082E-2,8.3677314E-4],"categories":[],"categories_nodes":[],"categories_segments":[],"categories_sizes":[],"default_left":[0,0,0,0,0,0,0,0,0,0,0,0,0,0,0,0,0,0,0,0,0,0,0,0,0,0,0,0,0],"id":12,"left_children":[1,3,5,7,9,11,13,15,17,19,21,23,25,-1,27,-1,-1,-1,-1,-1,-1,-1,-1,-1,-1,-1,-1,-1,-1],"loss_changes":[3.2227945E0,2.390838E0,3.0389872E0,1.5104331E0,3.2439651E0,2.3179636E0,1.3691632E0,1.2264695E0,8.1097335E-1,3.3143568E-1,1.2901101E0,1.5697651E0,2.8551655E0,0E0,3.5158002E-1,0E0,0E0,0E0,0E0,0E0,0E0,0E0,0E0,0E0,0E0,0E0,0E0,0E0,0E0],"parents":[2147483647,0,0,1,1,2,2,3,3,4,4,5,5,6,6,7,7,8,8,9,9,10,10,11,11,12,12,14,14],"right_children":[2,4,6,8,10,12,14,16,18,20,22,24,26,-1,28,-1,-1,-1,-1,-1,-1,-1,-1,-1,-1,-1,-1,-1,-1],"split_conditions":[1.6E0,1.487661E3,1.5403058E3,1.5005005E3,-1.03942345E2,9.1245674E1,-7.126881E1,1.4373225E3,8E-1,-1.295683E2,1.4667437E3,2.4E0,1.580731E3,1.9522795E-2,1.580933E3,1.8736772E-2,-1.0547915E-2,2.203436E-2,-3.4294613E-3,-2.671176E-2,-3.4711235E-3,6.4834864E-3,2.5830528E-2,3.46136E-2,-8.438127E-3,-2.1819988E-2,2.3840312E-2,-2.8082082E-2,8.3677314E-4],"split_indices":[3,1,1,0,2,2,2,1,6,2,0,4,0,0,0,0,0,0,0,0,0,0,0,0,0,0,0,0,0],"split_type":[0,0,0,0,0,0,0,0,0,0,0,0,0,0,0,0,0,0,0,0,0,0,0,0,0,0,0,0,0],"sum_hessian":[1.5143214E2,9.081975E1,6.061239E1,4.2242085E1,4.8577663E1,5.362446E1,6.9879303E0,2.9945734E1,1.229635E1,6.0173492E0,4.2560314E1,4.0824017E1,1.2800446E1,2.259585E0,4.7283454E0,3.1754355E0,2.67703E1,7.825607E0,4.4707427E0,2.9433746E0,3.0739748E0,1.3196619E1,2.9363697E1,3.8958645E1,1.865369E0,4.4709234E0,8.329522E0,3.4241064E0,1.304239E0],"tree_param":{"num_deleted":"0","num_feature":"7","num_nodes":"29","size_leaf_vector":"1"}},{"base_weights":[-3.0460265E-1,-1.10385254E-1,-3.7811115E-1,-2.3591298E-1,9.054172E-2,-5.880408E-1,-3.4354106E-1,2.8075096E-1,-3.612042E-1,-2.4312638E-1,7.7193815E-1,-4.5523862E-3,-3.270753E-2,1.314409E-2,-3.582488E-1,-5.681246E-3,2.482874E-2,-2.7981674E-2,-6.8479353E-3,1.169157E-2,-1.7595995E-2,1.082145E-2,4.8962824E-2,-1.4954283E-2,-2.5691185E-2],"categories":[],"categories_nodes":[],"categories_segments":[],"categories_sizes":[],"default_left":[0,0,0,0,0,0,0,0,0,0,0,0,0,0,0,0,0,0,0,0,0,0,0,0,0],"id":13,"left_children":[1,3,5,7,9,11,13,15,17,19,21,-1,-1,-1,23,-1,-1,-1,-1,-1,-1,-1,-1,-1,-1],"loss_changes":[2.0055456E0,1.0500453E0,5.4995155E-1,1.7443447E0,3.9176073E0,3.7562847E-1,9.0911865E-1,5.259312E-1,8.51732E-1,6.931975E-1,4.367087E-1,0E0,0E0,0E0,6.7130375E-1,0E0,0E0,0E0,0E0,0E0,0E0,0E0,0E0,0E0,0E0],"parents":[2147483647,0,0,1,1,2,2,3,3,4,4,5,5,6,6,7,7,8,8,9,9,10,10,14,14],"right_children":[2,4,6,8,10,12,14,16,18,20,22,-1,-1,-1,24,-1,-1,-1,-1,-1,-1,-1,-1,-1,-1],"split_conditions":[1.4727916E3,-3.015255E1,1.484E3,-1.03942345E2,1.4735316E3,7.5E-1,1.4843245E3,2E0,-6.1379017E1,2.5E-1,3.75E-1,-4.5523862E-3,-3.270753E-2,1.314409E-2,1.5541982E3,-5.681246E-3,2.482874E-2,-2.7981674E-2,-6.8479353E-3,1.169157E-2,-1.7595995E-2,1.082145E-2,4.8962824E-2,-1.4954283E-2,-2.5691185E-2],"split_indices":[0,2,0,2,1,4,0,4,2,4,6,0,0,0,0,0,0,0,0,0,0,0,0,0,0],"split_type":[0,0,0,0,0,0,0,0,0,0,0,0,0,0,0,0,0,0,0,0,0,0,0,0,0],"sum_hessian":[1.4240102E2,3.9785385E1,1.0261563E2,2.4380018E1,1.540537E1,1.2245251E1,9.0370384E1,4.5161138E0,1.9863903E1,1.0773142E1,4.632228E0,1.7167163E0,1.0528534E1,1.740324E0,8.863006E1,1.7648054E0,2.7513082E0,9.745089E0,1.0118814E1,1.7874655E0,8.985676E0,1.8144245E0,2.8178034E0,6.63286E1,2.2301462E1],"tree_param":{"num_deleted":"0","num_feature":"7","num_nodes":"25","size_leaf_vector":"1"}},{"base_weights":[8.472871E-3,2.5209752E-1,-8.9534834E-2,3.0448398E-1,-2.503314E-2,-1.7770614E-1,2.513285E-1,4.623217E-1,1.3307057E-1,-7.351358E-2,-3.2896897E-1,8.8757426E-2,5.892098E-1,9.90454E-3,3.709018E-2,-4.025638E-3,3.3447478E-2,-1.1529394E-2,3.5687666E-3,-2.137178E-2,-2.057784E-4,1.7403577E-2,-2.1891072E-2,4.6341855E-2,1.1208731E-2],"categories":[],"categories_nodes":[],"categories_segments":[],"categories_sizes":[],"default_left":[0,0,0,0,0,0,0,0,0,0,0,0,0,0,0,0,0,0,0,0,0,0,0,0,0],"id":14,"left_children":[1,3,5,7,-1,9,11,13,15,17,19,21,23,-1,-1,-1,-1,-1,-1,-1,-1,-1,-1,-1,-1],"loss_changes":[3.5628743E0,1.8401759E0,3.2446566E0,1.037895E0,0E0,1.3182585E0,1.1723983E0,1.3854985E0,2.4441578E0,1.1936132E0,1.1003187E0,2.3686318E0,6.6300225E-1,0E0,0E0,0E0,0E0,0E0,0E0,0E0,0E0,0E0,0E0,0E0,0E0],"parents":[2147483647,0,0,1,1,2,2,3,3,5,5,6,6,7,7,8,8,9,9,10,10,11,11,12,12],"right_children":[2,4,6,8,-1,10,12,14,16,18,20,22,24,-1,-1,-1,-1,-1,-1,-1,-1,-1,-1,-1,-1],"split_conditions":[1.4703928E3,1.75E0,1.5429796E3,1.4932008E3,-2.503314E-2,1.6E0,1.8E0,1.4723617E3,2.2E0,-5E-1,7.5561455E1,1.4921311E3,-3.3333334E-1,9.90454E-3,3.709018E-2,-4.025638E-3,3.3447478E-2,-1.1529394E-2,3.5687666E-3,-2.137178E-2,-2.057784E-4,1.7403577E-2,-2.1891072E-2,4.6341855E-2,1.1208731E-2],"split_indices":[1,4,1,0,0,3,3,0,3,5,2,0,5,0,0,0,0,0,0,0,0,0,0,0,0],"split_type":[0,0,0,0,0,0,0,0,0,0,0,0,0,0,0,0,0,0,0,0,0,0,0,0,0],"sum_hessian":[1.4727193E2,4.1798424E1,1.0547351E2,3.9635593E1,2.1628296E0,8.417784E1,2.129567E1,1.975138E1,1.9884214E1,5.072414E1,3.3453697E1,1.5230315E1,6.0653543E0,1.10310545E1,8.720326E0,1.482516E1,5.0590544E0,2.4054806E1,2.6669333E1,2.5429852E1,8.023847E0,1.0432044E1,4.7982717E0,2.3514361E0,3.713918E0],"tree_param":{"num_deleted":"0","num_feature":"7","num_nodes":"25","size_leaf_vector":"1"}},{"base_weights":[2.6648504E-1,1.4510882E-1,4.2951956E-1,-3.9814394E-2,2.9225186E-1,5.00957E-1,-1.4382815E-1,-1.1598377E-1,4.6458447E-1,-3.334577E-1,3.8486442E-1,7.827608E-1,3.525638E-1,1.9189542E-2,-4.2166057E-1,1.102665E-2,-1.4755686E-2,4.857777E-2,-1.0075356E-2,-2.632582E-2,-3.3046864E-3,2.9619614E-2,1.1692829E-2,5.5572014E-2,2.3331039E-2,-4.5657284E-3,2.2818599E-2,-2.7887298E-2,1.1853136E-3],"categories":[],"categories_nodes":[],"categories_segments":[],"categories_sizes":[],"default_left":[0,0,0,0,0,0,0,0,0,0,0,0,0,0,0,0,0,0,0,0,0,0,0,0,0,0,0,0,0],"id":15,"left_children":[1,3,5,7,9,11,13,15,17,19,21,23,25,-1,27,-1,-1,-1,-1,-1,-1,-1,-1,-1,-1,-1,-1,-1,-1],"loss_changes":[2.9681025E0,2.441397E0,2.727995E0,1.6079017E0,3.0169382E0,2.1445856E0,1.3288674E0,2.231667E0,2.0552683E0,3.2458836E-1,1.2367496E0,1.4709129E0,1.8726625E0,0E0,3.5817754E-1,0E0,0E0,0E0,0E0,0E0,0E0,0E0,0E0,0E0,0E0,0E0,0E0,0E0,0E0],"parents":[2147483647,0,0,1,1,2,2,3,3,4,4,5,5,6,6,7,7,8,8,9,9,10,10,11,11,12,12,14,14],"right_children":[2,4,6,8,10,12,14,16,18,20,22,24,26,-1,28,-1,-1,-1,-1,-1,-1,-1,-1,-1,-1,-1,-1,-1,-1],"split_conditions":[1.5E0,1.487661E3,1.5403058E3,6.5E-1,-1.03942345E2,2.5E-1,-7.126881E1,-5E-1,1.4579291E3,-1.295683E2,-8E-1,1.8E0,1.8E0,1.9189542E-2,1.583219E3,1.102665E-2,-1.4755686E-2,4.857777E-2,-1.0075356E-2,-2.632582E-2,-3.3046864E-3,2.9619614E-2,1.1692829E-2,5.5572014E-2,2.3331039E-2,-4.5657284E-3,2.2818599E-2,-2.7887298E-2,1.1853136E-3],"split_indices":[3,1,1,5,2,5,2,5,1,2,5,3,3,0,1,0,0,0,0,0,0,0,0,0,0,0,0,0,0],"split_type":[0,0,0,0,0,0,0,0,0,0,0,0,0,0,0,0,0,0,0,0,0,0,0,0,0,0,0,0,0],"sum_hessian":[1.5214084E2,8.829608E1,6.3844757E1,3.9448402E1,4.8847683E1,5.6883503E1,6.9612565E0,3.494188E1,4.5065246E0,5.962595E0,4.2885086E1,1.8146935E1,3.8736565E1,2.2696643E0,4.691592E0,1.2058127E1,2.288375E1,2.2985086E0,2.208016E0,2.8995767E0,3.063018E0,1.683124E1,2.6053848E1,7.6636515E0,1.0483283E1,7.3649173E0,3.1371649E1,3.4002805E0,1.2913117E0],"tree_param":{"num_deleted":"0","num_feature":"7","num_nodes":"29","size_leaf_vector":"1"}},{"base_weights":[-2.96172E-1,-1.0664491E-1,-3.684025E-1,-2.9340175E-1,2.9420407E-2,-5.7792014E-1,-3.341262E-1,2.0364292E-2,-3.7886792E-1,-2.7912473E-2,1.5129669E-1,-4.1695978E-3,-3.2234915E-2,-1.2983935E-1,-3.8573846E-1,-2.2769338E-2,2.4557792E-6,-7.4622366E-3,1.6010402E-2,-2.2861257E-2,1.0355724E-2,-4.5418567E-3,-2.1465776E-2],"categories":[],"categories_nodes":[],"categories_segments":[],"categories_sizes":[],"default_left":[0,0,0,0,0,0,0,0,0,0,0,0,0,0,0,0,0,0,0,0,0,0,0],"id":16,"left_children":[1,3,5,7,9,11,13,-1,15,-1,17,-1,-1,19,21,-1,-1,-1,-1,-1,-1,-1,-1],"loss_changes":[1.9060297E0,1.0408199E0,5.428753E-1,1.1850338E0,1.832621E0,3.767991E-1,9.03532E-1,0E0,4.598322E-1,0E0,1.1139588E0,0E0,0E0,2.2732902E0,8.82349E-1,0E0,0E0,0E0,0E0,0E0,0E0,0E0,0E0],"parents":[2147483647,0,0,1,1,2,2,3,3,4,4,5,5,6,6,8,8,10,10,13,13,14,14],"right_children":[2,4,6,8,10,12,14,-1,16,-1,18,-1,-1,20,22,-1,-1,-1,-1,-1,-1,-1,-1],"split_conditions":[1.4727916E3,3.75E-1,1.484E3,1.4065193E3,1.4323197E3,7.5E-1,-5E-1,2.0364292E-2,1E-1,-2.7912473E-2,1.470959E3,-4.1695978E-3,-3.2234915E-2,-3.3311684E1,4E-1,-2.2769338E-2,2.4557792E-6,-7.4622366E-3,1.6010402E-2,-2.2861257E-2,1.0355724E-2,-4.5418567E-3,-2.1465776E-2],"split_indices":[0,6,0,0,0,4,5,0,5,0,1,0,0,2,6,0,0,0,0,0,0,0,0],"split_type":[0,0,0,0,0,0,0,0,0,0,0,0,0,0,0,0,0,0,0,0,0,0,0],"sum_hessian":[1.4110149E2,3.9619522E1,1.0148197E2,1.6211733E1,2.340779E1,1.20379715E1,8.9444E1,1.3530877E0,1.48586445E1,3.4056711E0,2.0002117E1,1.6996843E0,1.0338287E1,1.874903E1,7.069497E1,1.2194304E1,2.6643405E0,7.2387505E0,1.2763368E1,9.32849E0,9.420539E0,9.498665E0,6.119631E1],"tree_param":{"num_deleted":"0","num_feature":"7","num_nodes":"23","size_leaf_vector":"1"}},{"base_weights":[8.620965E-3,2.4347377E-1,-8.6528815E-2,2.9450354E-1,-2.4809184E-2,-1.7572731E-1,2.3165236E-1,4.459262E-1,1.2916921E-1,7.285702E-2,-2.4697475E-1,6.431801E-1,1.2248515E-1,9.451108E-3,3.5838492E-2,-3.9656735E-3,3.2364007E-2,1.102079E-2,-2.7353605E-2,-1.4711337E-2,3.0230756E-3,9.228919E-3,4.381295E-2,-2.1110468E-2,1.4477948E-2],"categories":[],"categories_nodes":[],"categories_segments":[],"categories_sizes":[],"default_left":[0,0,0,0,0,0,0,0,0,0,0,0,0,0,0,0,0,0,0,0,0,0,0,0,0],"id":17,"left_children":[1,3,5,7,-1,9,11,13,15,17,19,21,23,-1,-1,-1,-1,-1,-1,-1,-1,-1,-1,-1,-1],"loss_changes":[3.3304732E0,1.767751E0,3.052926E0,9.6429014E-1,0E0,1.4962227E0,9.8460734E-1,1.3185792E0,2.311097E0,1.8920213E0,9.634783E-1,3.435713E-1,1.9371274E0,0E0,0E0,0E0,0E0,0E0,0E0,0E0,0E0,0E0,0E0,0E0,0E0],"parents":[2147483647,0,0,1,1,2,2,3,3,5,5,6,6,7,7,8,8,9,9,10,10,11,11,12,12],"right_children":[2,4,6,8,-1,10,12,14,16,18,20,22,24,-1,-1,-1,-1,-1,-1,-1,-1,-1,-1,-1,-1],"split_conditions":[1.4703928E3,1.75E0,1.5371349E3,1.4932008E3,-2.4809184E-2,5E-1,-1.232862E2,1.4723617E3,2.2E0,1.5212341E3,7.5561455E1,-1.25E0,-1.01484314E2,9.451108E-3,3.5838492E-2,-3.9656735E-3,3.2364007E-2,1.102079E-2,-2.7353605E-2,-1.4711337E-2,3.0230756E-3,9.228919E-3,4.381295E-2,-2.1110468E-2,1.4477948E-2],"split_indices":[1,4,1,0,0,6,2,0,3,1,2,5,2,0,0,0,0,0,0,0,0,0,0,0,0],"split_type":[0,0,0,0,0,0,0,0,0,0,0,0,0,0,0,0,0,0,0,0,0,0,0,0,0],"sum_hessian":[1.4709708E2,4.19631E1,1.0513399E2,3.981786E1,2.1452403E0,8.246388E1,2.2670105E1,1.9897486E1,1.9920372E1,1.8365065E1,6.4098816E1,3.7273633E0,1.8942741E1,1.1082896E1,8.8145895E0,1.4808498E1,5.1118746E0,1.5354707E1,3.0103571E0,5.5596737E1,8.502078E0,1.8598571E0,1.8675064E0,4.0879874E0,1.48547535E1],"tree_param":{"num_deleted":"0","num_feature":"7","num_nodes":"25","size_leaf_vector":"1"}},{"base_weights":[2.5575617E-1,1.3857698E-1,4.1269344E-1,-4.0231515E-2,2.801501E-1,4.810723E-1,-1.4135717E-1,-1.1483298E-1,4.5052955E-1,-3.301059E-1,3.6960584E-1,7.522704E-1,3.3792523E-1,1.8677242E-2,-4.156889E-1,1.06459195E-2,-1.4535271E-2,4.7177244E-2,-1.0089981E-2,-2.5999105E-2,-3.4415082E-3,1.3698006E-2,3.5496876E-2,5.3446896E-2,2.2357851E-2,-1.574825E-2,2.0043144E-2,-2.7549688E-2,1.1463119E-3],"categories":[],"categories_nodes":[],"categories_segments":[],"categories_sizes":[],"default_left":[0,0,0,0,0,0,0,0,0,0,0,0,0,0,0,0,0,0,0,0,0,0,0,0,0,0,0,0,0],"id":18,"left_children":[1,3,5,7,9,11,13,15,17,19,21,23,25,-1,27,-1,-1,-1,-1,-1,-1,-1,-1,-1,-1,-1,-1,-1,-1],"loss_changes":[2.770358E0,2.2777848E0,2.5389729E0,1.5322549E0,2.8567774E0,2.0084505E0,1.2765639E0,2.1312323E0,1.9718361E0,3.081454E-1,1.2430625E0,1.3887377E0,1.7684269E0,0E0,3.480698E-1,0E0,0E0,0E0,0E0,0E0,0E0,0E0,0E0,0E0,0E0,0E0,0E0,0E0,0E0],"parents":[2147483647,0,0,1,1,2,2,3,3,4,4,5,5,6,6,7,7,8,8,9,9,10,10,11,11,12,12,14,14],"right_children":[2,4,6,8,10,12,14,16,18,20,22,24,26,-1,28,-1,-1,-1,-1,-1,-1,-1,-1,-1,-1,-1,-1,-1,-1],"split_conditions":[1.5E0,1.487661E3,1.5403058E3,6.5E-1,-1.03942345E2,2.5E-1,-7.126881E1,-5E-1,1.4579291E3,-1.295683E2,-1.5841262E1,1.8E0,1.4366115E3,1.8677242E-2,1.583219E3,1.06459195E-2,-1.4535271E-2,4.7177244E-2,-1.0089981E-2,-2.5999105E-2,-3.4415082E-3,1.3698006E-2,3.5496876E-2,5.3446896E-2,2.2357851E-2,-1.574825E-2,2.0043144E-2,-2.7549688E-2,1.1463119E-3],"split_indices":[3,1,1,5,2,5,2,5,1,2,2,3,1,0,1,0,0,0,0,0,0,0,0,0,0,0,0,0,0],"split_type":[0,0,0,0,0,0,0,0,0,0,0,0,0,0,0,0,0,0,0,0,0,0,0,0,0,0,0,0,0],"sum_hessian":[1.5275655E2,8.85343E1,6.422225E1,3.943865E1,4.9095654E1,5.728417E1,6.9380817E0,3.489952E1,4.539128E0,5.932785E0,4.316287E1,1.8320322E1,3.896385E1,2.285917E0,4.6521645E0,1.2113839E1,2.278568E1,2.3309927E0,2.2081351E0,2.8624198E0,3.0703654E0,3.51027E1,8.060171E0,7.7614975E0,1.0558824E1,3.0737345E0,3.5890114E1,3.3595817E0,1.2925829E0],"tree_param":{"num_deleted":"0","num_feature":"7","num_nodes":"29","size_leaf_vector":"1"}},{"base_weights":[-2.882645E-1,-1.02517955E-1,-3.5953778E-1,-2.2623664E-1,9.416488E-2,-5.694459E-1,-3.2539332E-1,2.7543843E-1,-3.4982073E-1,-2.3273881E-1,7.491038E-1,-3.923518E-3,-3.1833246E-2,1.35741485E-2,-3.4021094E-1,-5.382986E-3,2.4088157E-2,-2.74182E-2,-6.397915E-3,1.1757702E-2,-1.7058231E-2,1.1002029E-2,4.6986043E-2,-1.4071676E-2,-2.4813343E-2],"categories":[],"categories_nodes":[],"categories_segments":[],"categories_sizes":[],"default_left":[0,0,0,0,0,0,0,0,0,0,0,0,0,0,0,0,0,0,0,0,0,0,0,0,0],"id":19,"left_children":[1,3,5,7,9,11,13,15,17,19,21,-1,-1,-1,23,-1,-1,-1,-1,-1,-1,-1,-1,-1,-1],"loss_changes":[1.8282261E0,1.0059764E0,5.415659E-1,1.6546693E0,3.670951E0,3.7430048E-1,8.844509E-1,4.88765E-1,8.3756137E-1,6.7160004E-1,3.6549807E-1,0E0,0E0,0E0,6.659956E-1,0E0,0E0,0E0,0E0,0E0,0E0,0E0,0E0,0E0,0E0],"parents":[2147483647,0,0,1,1,2,2,3,3,4,4,5,5,6,6,7,7,8,8,9,9,10,10,14,14],"right_children":[2,4,6,8,10,12,14,16,18,20,22,-1,-1,-1,24,-1,-1,-1,-1,-1,-1,-1,-1,-1,-1],"split_conditions":[1.4727916E3,-3.015255E1,1.484E3,-1.03942345E2,1.4735316E3,7.5E-1,1.4843245E3,2E0,-6.1379017E1,2.5E-1,3.75E-1,-3.923518E-3,-3.1833246E-2,1.35741485E-2,1.5541982E3,-5.382986E-3,2.4088157E-2,-2.74182E-2,-6.397915E-3,1.1757702E-2,-1.7058231E-2,1.1002029E-2,4.6986043E-2,-1.4071676E-2,-2.4813343E-2],"split_indices":[0,2,0,2,1,4,0,4,2,4,6,0,0,0,0,0,0,0,0,0,0,0,0,0,0],"split_type":[0,0,0,0,0,0,0,0,0,0,0,0,0,0,0,0,0,0,0,0,0,0,0,0,0],"sum_hessian":[1.3988068E2,3.9465996E1,1.0041468E2,2.4134497E1,1.5331498E1,1.185524E1,8.855944E1,4.52738E0,1.9607119E1,1.0656897E1,4.6746016E0,1.688636E0,1.0166604E1,1.7256594E0,8.6833786E1,1.7521806E0,2.7751992E0,9.570712E0,1.0036406E1,1.7850447E0,8.871852E0,1.8087428E0,2.8658588E0,6.511287E1,2.1720915E1],"tree_param":{"num_deleted":"0","num_feature":"7","num_nodes":"25","size_leaf_vector":"1"}},{"base_weights":[8.697957E-3,2.4910767E-1,-7.8283116E-2,3.3645618E-1,-1.5196295E-1,-1.6318518E-1,2.1398272E-1,2.0847435E-1,6.588272E-1,-4.26008E-1,1.6909277E-2,1.20890714E-1,-2.4308267E-1,6.1970556E-1,1.1302852E-1,-2.8312832E-2,1.7214071E-2,4.749786E-2,5.7158307E-3,-7.7648694E-4,-2.7958145E-2,1.6348578E-2,-1.6216096E-2,-1.5073164E-2,6.0394085E-3,8.723473E-3,4.2376596E-2,-2.0782119E-2,1.3091917E-2],"categories":[],"categories_nodes":[],"categories_segments":[],"categories_sizes":[],"default_left":[0,0,0,0,0,0,0,0,0,0,0,0,0,0,0,0,0,0,0,0,0,0,0,0,0,0,0,0,0],"id":20,"left_children":[1,3,5,7,9,11,13,15,17,19,-1,21,23,25,27,-1,-1,-1,-1,-1,-1,-1,-1,-1,-1,-1,-1,-1,-1],"loss_changes":[3.112932E0,1.436393E0,2.7493382E0,1.2151296E0,1.18648E0,1.9662035E0,9.5627487E-1,2.8177633E0,1.2947977E0,2.8756166E-1,0E0,1.8859785E0,1.4582899E0,3.359294E-1,1.7835498E0,0E0,0E0,0E0,0E0,0E0,0E0,0E0,0E0,0E0,0E0,0E0,0E0,0E0,0E0],"parents":[2147483647,0,0,1,1,2,2,3,3,4,4,5,5,6,6,7,7,8,8,9,9,11,11,12,12,13,13,14,14],"right_children":[2,4,6,8,10,12,14,16,18,20,-1,22,24,26,28,-1,-1,-1,-1,-1,-1,-1,-1,-1,-1,-1,-1,-1,-1],"split_conditions":[1.4690089E3,1.5642012E3,1.5356556E3,6.9821625E1,2.3333333E0,5E-1,-1.232862E2,1.4373225E3,7E-1,1.290313E2,1.6909277E-2,-1.7175478E1,7.5561455E1,-1.25E0,-1.01484314E2,-2.8312832E-2,1.7214071E-2,4.749786E-2,5.7158307E-3,-7.7648694E-4,-2.7958145E-2,1.6348578E-2,-1.6216096E-2,-1.5073164E-2,6.0394085E-3,8.723473E-3,4.2376596E-2,-2.0782119E-2,1.3091917E-2],"split_indices":[1,0,1,2,3,6,2,1,6,2,0,2,2,5,2,0,0,0,0,0,0,0,0,0,0,0,0,0,0],"split_type":[0,0,0,0,0,0,0,0,0,0,0,0,0,0,0,0,0,0,0,0,0,0,0,0,0,0,0,0,0],"sum_hessian":[1.4693253E2,3.8541775E1,1.08390755E2,3.1781286E1,6.7604885E0,8.433378E1,2.4056974E1,2.3928371E1,7.852914E0,4.420063E0,2.3404255E0,1.8399876E1,6.593391E1,3.769465E0,2.028751E1,3.0961826E0,2.083219E1,4.6318336E0,3.2210805E0,1.356131E0,3.0639322E0,1.2759376E1,5.6404996E0,5.6965664E1,8.968244E0,1.8736439E0,1.8958211E0,4.062327E0,1.6225183E1],"tree_param":{"num_deleted":"0","num_feature":"7","num_nodes":"29","size_leaf_vector":"1"}},{"base_weights":[2.4542205E-1,-2.6893867E-2,2.659075E-1,2.6204864E-2,3.4563187E-1,-1.0622029E-1,5.488769E-1,2.143871E-1,4.7072193E-1,1.3535473E-3,-2.5622535E-2,3.4342334E-2,-2.8092698E-3,1.7653622E-2,-4.0255166E-3,3.6677446E-2,1.7098088E-2],"categories":[],"categories_nodes":[],"categories_segments":[],"categories_sizes":[],"default_left":[0,0,0,0,0,0,0,0,0,0,0,0,0,0,0,0,0],"id":21,"left_children":[1,-1,3,5,7,9,11,13,15,-1,-1,-1,-1,-1,-1,-1,-1],"loss_changes":[2.6186256E0,0E0,2.8768854E0,2.7420077E0,1.7582359E0,1.734309E0,7.064378E-1,2.3636267E0,1.6830206E0,0E0,0E0,0E0,0E0,0E0,0E0,0E0,0E0],"parents":[2147483647,0,0,2,2,3,3,4,4,5,5,6,6,7,7,8,8],"right_children":[2,-1,4,6,8,10,12,14,16,-1,-1,-1,-1,-1,-1,-1,-1],"split_conditions":[-1.232862E2,-2.6893867E-2,1.4690089E3,1.5642012E3,-1.2148285E1,1.4610087E3,1.6012441E3,-3.015255E1,1.1920315E1,1.3535473E-3,-2.5622535E-2,3.4342334E-2,-2.8092698E-3,1.7653622E-2,-4.0255166E-3,3.6677446E-2,1.7098088E-2],"split_indices":[2,0,1,0,2,1,0,2,2,0,0,0,0,0,0,0,0],"split_type":[0,0,0,0,0,0,0,0,0,0,0,0,0,0,0,0,0],"sum_hessian":[1.5327908E2,3.2628145E0,1.5001628E2,3.7773518E1,1.1224275E2,3.077347E1,7.000049E0,5.6098232E1,5.6144524E1,2.3873516E1,6.8999543E0,5.5901775E0,1.4098716E0,3.802054E1,1.8077694E1,1.6916773E1,3.922775E1],"tree_param":{"num_deleted":"0","num_feature":"7","num_nodes":"17","size_leaf_vector":"1"}},{"base_weights":[-2.804275E-1,-7.0861414E-2,-3.4159884E-1,-1.4224748E-1,5.32597E-1,-5.648083E-1,-2.9026657E-1,3.659729E-1,-2.358704E-1,4.0071107E-2,1.0881455E-3,-1.1080799E-1,-3.2825228E-2,1.0024971E-1,-3.661388E-1,-1.0174984E-3,4.074634E-2,-2.9777601E-2,-5.281482E-3,2.1057442E-2,-2.3997042E-2,-5.0289994E-3,3.4631457E-2,-3.2863345E-2,-1.4563582E-2],"categories":[],"categories_nodes":[],"categories_segments":[],"categories_sizes":[],"default_left":[0,0,0,0,0,0,0,0,0,0,0,0,0,0,0,0,0,0,0,0,0,0,0,0,0],"id":22,"left_children":[1,3,5,7,9,11,13,15,17,-1,-1,19,-1,21,23,-1,-1,-1,-1,-1,-1,-1,-1,-1,-1],"loss_changes":[1.7654839E0,1.4889569E0,1.0712366E0,1.5196629E0,4.8804677E-1,7.2234726E-1,2.6945543E0,8.973245E-1,1.1572284E0,0E0,0E0,1.0685496E0,0E0,1.8991463E0,1.4503412E0,0E0,0E0,0E0,0E0,0E0,0E0,0E0,0E0,0E0,0E0],"parents":[2147483647,0,0,1,1,2,2,3,3,4,4,5,5,6,6,7,7,8,8,11,11,13,13,14,14],"right_children":[2,4,6,8,10,12,14,16,18,-1,-1,20,-1,22,24,-1,-1,-1,-1,-1,-1,-1,-1,-1,-1],"split_conditions":[1.467713E3,1.4663279E3,-2.9160217E1,-1.03942345E2,1.492412E3,-1.0740879E2,-8.2186365E0,1.4515549E3,-7.138693E1,4.0071107E-2,1.0881455E-3,1.4884275E3,-3.2825228E-2,1.5012946E3,1.1920315E1,-1.0174984E-3,4.074634E-2,-2.9777601E-2,-5.281482E-3,2.1057442E-2,-2.3997042E-2,-5.0289994E-3,3.4631457E-2,-3.2863345E-2,-1.4563582E-2],"split_indices":[0,0,2,2,1,2,2,0,2,0,0,0,0,0,2,0,0,0,0,0,0,0,0,0,0],"split_type":[0,0,0,0,0,0,0,0,0,0,0,0,0,0,0,0,0,0,0,0,0,0,0,0,0],"sum_hessian":[1.3860744E2,3.1805132E1,1.0680231E2,2.912417E1,2.6809616E0,1.8098991E1,8.8703316E1,4.0780387E0,2.5046131E1,1.3838592E0,1.2971025E0,3.4123602E0,1.4686631E1,1.437801E1,7.43253E1,2.7050378E0,1.3730011E0,5.7084885E0,1.9337643E1,1.3401532E0,2.072207E0,1.1357707E1,3.0203028E0,1.3612538E1,6.0712765E1],"tree_param":{"num_deleted":"0","num_feature":"7","num_nodes":"25","size_leaf_vector":"1"}},{"base_weights":[8.706059E-3,2.2743715E-1,-8.100396E-2,2.756985E-1,-2.4302574E-2,-1.6877398E-1,2.0627357E-1,4.7429764E-1,1.5972216E-1,8.919457E-2,-2.4317348E-1,6.0239804E-1,1.0756007E-1,-3.100583E-3,3.4712806E-2,-6.675549E-3,1.8566003E-2,1.5847526E-2,-1.7123178E-2,-2.3522202E-2,-8.575845E-3,8.460215E-3,4.117759E-2,-2.0475443E-2,1.25908805E-2],"categories":[],"categories_nodes":[],"categories_segments":[],"categories_sizes":[],"default_left":[0,0,0,0,0,0,0,0,0,0,0,0,0,0,0,0,0,0,0,0,0,0,0,0,0],"id":23,"left_children":[1,3,5,7,-1,9,11,13,15,17,19,21,23,-1,-1,-1,-1,-1,-1,-1,-1,-1,-1,-1,-1],"loss_changes":[2.9175193E0,1.6227219E0,2.6951895E0,8.716519E-1,0E0,1.5833724E0,9.1832685E-1,1.7720764E0,1.7543926E0,1.971147E0,9.521773E-1,3.2032228E-1,1.6951808E0,0E0,0E0,0E0,0E0,0E0,0E0,0E0,0E0,0E0,0E0,0E0,0E0],"parents":[2147483647,0,0,1,1,2,2,3,3,5,5,6,6,7,7,8,8,9,9,10,10,11,11,12,12],"right_children":[2,4,6,8,-1,10,12,14,16,18,20,22,24,-1,-1,-1,-1,-1,-1,-1,-1,-1,-1,-1,-1],"split_conditions":[1.4703928E3,1.75E0,1.5356556E3,2.5515617E1,-2.4302574E-2,5E-1,-1.232862E2,5E-1,6.582596E1,-1.9116095E1,1.4749155E3,-1.25E0,-1.01484314E2,-3.100583E-3,3.4712806E-2,-6.675549E-3,1.8566003E-2,1.5847526E-2,-1.7123178E-2,-2.3522202E-2,-8.575845E-3,8.460215E-3,4.117759E-2,-2.0475443E-2,1.25908805E-2],"split_indices":[1,4,1,2,0,6,2,3,2,2,0,5,2,0,0,0,0,0,0,0,0,0,0,0,0],"split_type":[0,0,0,0,0,0,0,0,0,0,0,0,0,0,0,0,0,0,0,0,0,0,0,0,0],"sum_hessian":[1.4674442E2,4.223405E1,1.0451037E2,4.0132988E1,2.1010597E0,8.036844E1,2.4141935E1,1.3656997E1,2.6475994E1,1.7945698E1,6.2422737E1,3.7981126E0,2.0343822E1,4.1809516E0,9.476045E0,1.12519865E1,1.5224008E1,1.1921362E1,6.0243363E0,1.3629452E1,4.8793285E1,1.8802316E0,1.9178809E0,4.0365825E0,1.630724E1],"tree_param":{"num_deleted":"0","num_feature":"7","num_nodes":"25","size_leaf_vector":"1"}},{"base_weights":[2.3518425E-1,1.2755434E-1,3.9018434E-1,-2.66192E-2,2.5739413E-1,4.588742E-1,-1.4382738E-1,-1.3817011E-1,2.302458E-1,-3.2085142E-1,3.402204E-1,5.625971E-1,1.0873389E-1,1.7859725E-2,-4.1287693E-1,1.8509965E-2,-1.0498787E-2,1.995772E-2,-4.2913384E-3,-2.5148887E-2,-3.742198E-3,2.7018411E-2,9.776327E-3,3.015208E-2,-1.00606335E-2,-1.261234E-2,3.0390238E-2,1.0107296E-3,-2.7348643E-2],"categories":[],"categories_nodes":[],"categories_segments":[],"categories_sizes":[],"default_left":[0,0,0,0,0,0,0,0,0,0,0,0,0,0,0,0,0,0,0,0,0,0,0,0,0,0,0,0,0],"id":24,"left_children":[1,3,5,7,9,11,13,15,17,19,21,23,25,-1,27,-1,-1,-1,-1,-1,-1,-1,-1,-1,-1,-1,-1,-1,-1],"loss_changes":[2.533413E0,1.865936E0,2.3758554E0,1.2743272E0,2.5281808E0,1.9738102E0,1.2175423E0,1.2041872E0,7.552457E-1,2.6894403E-1,1.187851E0,1.4493198E0,2.6835923E0,0E0,3.3794034E-1,0E0,0E0,0E0,0E0,0E0,0E0,0E0,0E0,0E0,0E0,0E0,0E0,0E0,0E0],"parents":[2147483647,0,0,1,1,2,2,3,3,4,4,5,5,6,6,7,7,8,8,9,9,10,10,11,11,12,12,14,14],"right_children":[2,4,6,8,10,12,14,16,18,20,22,24,26,-1,28,-1,-1,-1,-1,-1,-1,-1,-1,-1,-1,-1,-1,-1,-1],"split_conditions":[1.6E0,1.487661E3,1.5403058E3,1.5005005E3,-1.03942345E2,9.1245674E1,-7.126881E1,1.4373225E3,8E-1,-1.295683E2,-8E-1,2.4E0,1.290313E2,1.7859725E-2,1.25E0,1.8509965E-2,-1.0498787E-2,1.995772E-2,-4.2913384E-3,-2.5148887E-2,-3.742198E-3,2.7018411E-2,9.776327E-3,3.015208E-2,-1.00606335E-2,-1.261234E-2,3.0390238E-2,1.0107296E-3,-2.7348643E-2],"split_indices":[3,1,1,0,2,2,2,1,6,2,5,4,2,0,4,0,0,0,0,0,0,0,0,0,0,0,0,0,0],"split_type":[0,0,0,0,0,0,0,0,0,0,0,0,0,0,0,0,0,0,0,0,0,0,0,0,0,0,0,0,0],"sum_hessian":[1.5384248E2,9.1871284E1,6.1971207E1,4.2363396E1,4.9507885E1,5.5033024E1,6.9381833E0,2.9858562E1,1.2504836E1,5.842826E0,4.366506E1,4.1988026E1,1.3044995E1,2.309617E0,4.6285663E0,3.181142E0,2.667742E1,7.9783587E0,4.526477E0,2.757102E0,3.0857239E0,1.7174236E1,2.6490824E1,4.0076424E1,1.9116031E0,7.8567395E0,5.188256E0,1.2950803E0,3.333486E0],"tree_param":{"num_deleted":"0","num_feature":"7","num_nodes":"29","size_leaf_vector":"1"}},{"base_weights":[-2.7257922E-1,-6.576188E-2,-3.3328187E-1,-1.361506E-1,5.224426E-1,-5.559409E-1,-2.824416E-1,3.6175027E-1,-2.288461E-1,1.0153987E-3,3.9305612E-2,-1.082694E-1,-3.2383204E-2,9.787186E-2,-3.5727084E-1,-8.3662145E-4,3.97878E-2,-2.9386207E-2,-5.015413E-3,2.062993E-2,-2.3714675E-2,-4.9698064E-3,3.371019E-2,-3.23637E-2,-1.41746E-2],"categories":[],"categories_nodes":[],"categories_segments":[],"categories_sizes":[],"default_left":[0,0,0,0,0,0,0,0,0,0,0,0,0,0,0,0,0,0,0,0,0,0,0,0,0],"id":25,"left_children":[1,3,5,7,9,11,13,15,17,-1,-1,19,-1,21,23,-1,-1,-1,-1,-1,-1,-1,-1,-1,-1],"loss_changes":[1.7151432E0,1.4225914E0,1.0510712E0,1.4648998E0,4.7329557E-1,7.020688E-1,2.5653872E0,8.490258E-1,1.1338902E0,0E0,0E0,1.0342829E0,0E0,1.8182629E0,1.410778E0,0E0,0E0,0E0,0E0,0E0,0E0,0E0,0E0,0E0,0E0],"parents":[2147483647,0,0,1,1,2,2,3,3,4,4,5,5,6,6,7,7,8,8,11,11,13,13,14,14],"right_children":[2,4,6,8,10,12,14,16,18,-1,-1,20,-1,22,24,-1,-1,-1,-1,-1,-1,-1,-1,-1,-1],"split_conditions":[1.467713E3,1.4663279E3,-2.9160217E1,-1.03942345E2,1E0,-1.0740879E2,-8.2186365E0,1.4515549E3,-7.138693E1,1.0153987E-3,3.9305612E-2,1.4884275E3,-3.2383204E-2,1.5012946E3,1.1920315E1,-8.3662145E-4,3.97878E-2,-2.9386207E-2,-5.015413E-3,2.062993E-2,-2.3714675E-2,-4.9698064E-3,3.371019E-2,-3.23637E-2,-1.41746E-2],"split_indices":[0,0,2,2,3,2,2,0,2,0,0,0,0,0,2,0,0,0,0,0,0,0,0,0,0],"split_type":[0,0,0,0,0,0,0,0,0,0,0,0,0,0,0,0,0,0,0,0,0,0,0,0,0],"sum_hessian":[1.3736311E2,3.1641638E1,1.0572147E2,2.8946255E1,2.695382E0,1.7805567E1,8.791591E1,4.087619E0,2.4858637E1,1.2988542E0,1.396528E0,3.398579E0,1.4406988E1,1.440348E1,7.351243E1,2.6970515E0,1.3905673E0,5.613459E0,1.9245178E1,1.3500936E0,2.0484853E0,1.1347107E1,3.0563731E0,1.3332617E1,6.017981E1],"tree_param":{"num_deleted":"0","num_feature":"7","num_nodes":"25","size_leaf_vector":"1"}},{"base_weights":[8.798189E-3,2.1893017E-1,-7.792276E-2,2.6562276E-1,-2.3985285E-2,-1.5804335E-1,2.2252533E-1,4.0507644E-1,1.1256945E-1,-5.964564E-2,-3.035281E-1,6.961589E-2,5.400375E-1,8.10295E-3,3.3062544E-2,-4.4654547E-3,3.0617937E-2,-1.0664495E-2,4.019621E-3,-1.9969111E-2,1.290769E-4,2.0872718E-2,-1.51858805E-2,3.4593787E-2,-2.541209E-3],"categories":[],"categories_nodes":[],"categories_segments":[],"categories_sizes":[],"default_left":[0,0,0,0,0,0,0,0,0,0,0,0,0,0,0,0,0,0,0,0,0,0,0,0,0],"id":26,"left_children":[1,3,5,7,-1,9,11,13,15,17,19,21,23,-1,-1,-1,-1,-1,-1,-1,-1,-1,-1,-1,-1],"loss_changes":[2.7063012E0,1.5423403E0,2.5675747E0,8.3591557E-1,0E0,1.1792026E0,1.0578568E0,1.2142344E0,2.181095E0,1.1174257E0,9.8399186E-1,2.2535014E0,6.7986727E-1,0E0,0E0,0E0,0E0,0E0,0E0,0E0,0E0,0E0,0E0,0E0,0E0],"parents":[2147483647,0,0,1,1,2,2,3,3,5,5,6,6,7,7,8,8,9,9,10,10,11,11,12,12],"right_children":[2,4,6,8,-1,10,12,14,16,18,20,22,24,-1,-1,-1,-1,-1,-1,-1,-1,-1,-1,-1,-1],"split_conditions":[1.4703928E3,1.75E0,1.5429796E3,1.4932008E3,-2.3985285E-2,1.6E0,1.8E0,1.4723617E3,2.2E0,-5E-1,7.5561455E1,1.4850607E3,5.833333E-1,8.10295E-3,3.3062544E-2,-4.4654547E-3,3.0617937E-2,-1.0664495E-2,4.019621E-3,-1.9969111E-2,1.290769E-4,2.0872718E-2,-1.51858805E-2,3.4593787E-2,-2.541209E-3],"split_indices":[1,4,1,0,0,3,3,0,3,5,2,0,6,0,0,0,0,0,0,0,0,0,0,0,0],"split_type":[0,0,0,0,0,0,0,0,0,0,0,0,0,0,0,0,0,0,0,0,0,0,0,0,0],"sum_hessian":[1.4657529E2,4.2374313E1,1.0420097E2,4.030066E1,2.073655E0,8.263788E1,2.1563095E1,2.022559E1,2.0075068E1,5.0137604E1,3.250028E1,1.5377001E1,6.1860943E0,1.12171545E1,9.008436E0,1.4884229E1,5.19084E0,2.3657948E1,2.6479656E1,2.4518072E1,7.982206E0,7.899127E0,7.477874E0,4.7853947E0,1.4006999E0],"tree_param":{"num_deleted":"0","num_feature":"7","num_nodes":"25","size_leaf_vector":"1"}},{"base_weights":[2.2555947E-1,1.2162049E-1,3.7496915E-1,-2.7157634E-2,2.46452E-1,4.4033223E-1,-1.3889337E-1,-1.354524E-1,2.2064734E-1,-3.1448588E-1,3.2573873E-1,-2.0606587E-2,5.1202005E-1,1.7558219E-2,-4.0562546E-1,1.8165156E-2,-1.0319242E-2,1.9220198E-2,-4.336163E-3,-2.477917E-2,-3.6384629E-3,3.788355E-3,2.1586558E-2,3.237175E-2,-2.3972487E-2,3.1424664E-2,1.5175685E-2,-2.6996583E-2,1.1532125E-3],"categories":[],"categories_nodes":[],"categories_segments":[],"categories_sizes":[],"default_left":[0,0,0,0,0,0,0,0,0,0,0,0,0,0,0,0,0,0,0,0,0,0,0,0,0,0,0,0,0],"id":27,"left_children":[1,3,5,7,9,11,13,15,17,19,21,23,25,-1,27,-1,-1,-1,-1,-1,-1,-1,-1,-1,-1,-1,-1,-1,-1],"loss_changes":[2.3649592E0,1.734322E0,2.1839857E0,1.1929908E0,2.356479E0,1.8712502E0,1.1740826E0,1.1639192E0,7.1591675E-1,2.609558E-1,1.1568098E0,2.9282324E0,9.9364376E-1,0E0,3.334198E-1,0E0,0E0,0E0,0E0,0E0,0E0,0E0,0E0,0E0,0E0,0E0,0E0,0E0,0E0],"parents":[2147483647,0,0,1,1,2,2,3,3,4,4,5,5,6,6,7,7,8,8,9,9,10,10,11,11,12,12,14,14],"right_children":[2,4,6,8,10,12,14,16,18,20,22,24,26,-1,28,-1,-1,-1,-1,-1,-1,-1,-1,-1,-1,-1,-1,-1,-1],"split_conditions":[1.6E0,1.487661E3,1.5403058E3,1.5005005E3,-1.03942345E2,5E-1,-7.126881E1,1.4373225E3,8E-1,-1.295683E2,1.4667437E3,1.6604984E1,6.6106766E1,1.7558219E-2,1.580933E3,1.8165156E-2,-1.0319242E-2,1.9220198E-2,-4.336163E-3,-2.477917E-2,-3.6384629E-3,3.788355E-3,2.1586558E-2,3.237175E-2,-2.3972487E-2,3.1424664E-2,1.5175685E-2,-2.6996583E-2,1.1532125E-3],"split_indices":[3,1,1,0,2,6,2,1,6,2,0,2,2,0,0,0,0,0,0,0,0,0,0,0,0,0,0,0,0],"split_type":[0,0,0,0,0,0,0,0,0,0,0,0,0,0,0,0,0,0,0,0,0,0,0,0,0,0,0,0,0],"sum_hessian":[1.5422493E2,9.2022316E1,6.2202625E1,4.2341194E1,4.9681118E1,5.5310276E1,6.8923483E0,2.978017E1,1.2561025E1,5.785242E0,4.3895878E1,7.54028E0,4.7769997E1,2.3176558E0,4.5746927E0,3.1947472E0,2.6585423E1,8.031496E0,4.529528E0,2.706916E0,3.078326E0,1.3581117E1,3.031476E1,2.9028826E0,4.6373973E0,2.93568E1,1.8413197E1,3.2857819E0,1.2889109E0],"tree_param":{"num_deleted":"0","num_feature":"7","num_nodes":"29","size_leaf_vector":"1"}},{"base_weights":[-2.650213E-1,-8.7220594E-2,-3.3438203E-1,-2.7235124E-1,4.599241E-2,-5.490974E-1,-2.999224E-1,2.0728564E-2,-3.5855597E-1,-2.6985098E-2,1.648208E-1,-2.8347091E-3,-3.09429E-2,-9.593215E-2,-3.5230288E-1,-2.173879E-2,4.726514E-4,1.439326E-2,-1.1235233E-2,-2.1141706E-2,1.1335543E-2,-2.9057402E-3,-1.984044E-2],"categories":[],"categories_nodes":[],"categories_segments":[],"categories_sizes":[],"default_left":[0,0,0,0,0,0,0,0,0,0,0,0,0,0,0,0,0,0,0,0,0,0,0],"id":28,"left_children":[1,3,5,7,9,11,13,-1,15,-1,17,-1,-1,19,21,-1,-1,-1,-1,-1,-1,-1,-1],"loss_changes":[1.6617212E0,9.9480176E-1,5.624857E-1,1.1441581E0,1.7605586E0,3.9044285E-1,8.9465094E-1,0E0,4.38128E-1,0E0,1.0584097E0,0E0,0E0,2.1132898E0,8.772774E-1,0E0,0E0,0E0,0E0,0E0,0E0,0E0,0E0],"parents":[2147483647,0,0,1,1,2,2,3,3,4,4,5,5,6,6,8,8,10,10,13,13,14,14],"right_children":[2,4,6,8,10,12,14,-1,16,-1,18,-1,-1,20,22,-1,-1,-1,-1,-1,-1,-1,-1],"split_conditions":[1.4727916E3,3.75E-1,1.484E3,1.4065193E3,1.4323197E3,7.5E-1,-5E-1,2.0728564E-2,1E-1,-2.6985098E-2,1.5131013E3,-2.8347091E-3,-3.09429E-2,-3.3311684E1,4E-1,-2.173879E-2,4.726514E-4,1.439326E-2,-1.1235233E-2,-2.1141706E-2,1.1335543E-2,-2.9057402E-3,-1.984044E-2],"split_indices":[0,6,0,0,0,4,5,0,5,0,1,0,0,2,6,0,0,0,0,0,0,0,0],"split_type":[0,0,0,0,0,0,0,0,0,0,0,0,0,0,0,0,0,0,0,0,0,0,0],"sum_hessian":[1.361095E2,3.882983E1,9.727967E1,1.581153E1,2.30183E1,1.1387909E1,8.589176E1,1.3382816E0,1.44732485E1,3.2849956E0,1.9733303E1,1.6381023E0,9.749807E0,1.812751E1,6.776425E1,1.1839662E1,2.633587E0,1.5194582E1,4.538722E0,8.850078E0,9.277432E0,9.207521E0,5.8556732E1],"tree_param":{"num_deleted":"0","num_feature":"7","num_nodes":"23","size_leaf_vector":"1"}},{"base_weights":[8.990199E-3,2.3897062E-1,-6.633365E-2,1.4484479E-1,6.3644505E-1,1.7247099E-1,-1.5540157E-1,3.1620795E-1,-2.7036154E-1,4.0672954E-2,-1.4882261E-3,4.4558698E-1,-2.204637E-2,-2.2295891E-1,1.8146431E-1,6.48089E-3,3.4651455E-2,-2.1046584E-2,1.7334098E-2,3.3152226E-2,-1.3972561E-2,-2.8368736E-2,6.791543E-3,-2.4599982E-2,-6.9800513E-3,2.9980306E-2,-3.9530694E-3],"categories":[],"categories_nodes":[],"categories_segments":[],"categories_sizes":[],"default_left":[0,0,0,0,0,0,0,0,0,0,0,0,0,0,0,0,0,0,0,0,0,0,0,0,0,0,0],"id":29,"left_children":[1,3,5,7,9,11,13,15,17,-1,-1,19,21,23,25,-1,-1,-1,-1,-1,-1,-1,-1,-1,-1,-1,-1],"loss_changes":[2.5679698E0,1.2758055E0,2.4039261E0,2.2811117E0,8.1508636E-1,1.6479108E0,1.9049156E0,1.4784136E0,1.0335989E0,0E0,0E0,2.2149014E0,1.7095283E0,1.471792E0,1.5983108E0,0E0,0E0,0E0,0E0,0E0,0E0,0E0,0E0,0E0,0E0,0E0,0E0],"parents":[2147483647,0,0,1,1,2,2,3,3,4,4,5,5,6,6,7,7,8,8,11,11,12,12,13,13,14,14],"right_children":[2,4,6,8,10,12,14,16,18,-1,-1,20,22,24,26,-1,-1,-1,-1,-1,-1,-1,-1,-1,-1,-1,-1],"split_conditions":[1.4674763E3,1.4613857E3,5E-1,1.4550364E3,1.4975237E3,1.4663279E3,1.5356556E3,1.445953E3,2.6E0,4.0672954E-2,-1.4882261E-3,2.2E0,1.5014989E3,1.4735292E3,1.5699613E3,6.48089E-3,3.4651455E-2,-2.1046584E-2,1.7334098E-2,3.3152226E-2,-1.3972561E-2,-2.8368736E-2,6.791543E-3,-2.4599982E-2,-6.9800513E-3,2.9980306E-2,-3.9530694E-3],"split_indices":[1,1,6,1,0,0,1,1,3,0,0,4,1,0,1,0,0,0,0,0,0,0,0,0,0,0,0],"split_type":[0,0,0,0,0,0,0,0,0,0,0,0,0,0,0,0,0,0,0,0,0,0,0,0,0,0,0],"sum_hessian":[1.4632532E2,3.5564976E1,1.1076034E2,2.9858585E1,5.7063923E0,2.9834122E1,8.0926216E1,2.1304333E1,8.554252E0,4.333849E0,1.3725432E0,1.1872945E1,1.7961178E1,6.768946E1,1.3236755E1,1.5147659E1,6.156674E0,7.1317873E0,1.4224644E0,9.199333E0,2.6736114E0,3.450148E0,1.4511029E1,1.48519535E1,5.2837505E1,4.581676E0,8.655079E0],"tree_param":{"num_deleted":"0","num_feature":"7","num_nodes":"27","size_leaf_vector":"1"}},{"base_weights":[2.1664633E-1,-2.5989017E-2,2.3515236E-1,1.853754E-2,3.0642617E-1,-1.0831324E-1,5.1257604E-1,1.8550435E-1,4.2143932E-1,8.307783E-4,-2.485594E-2,3.229828E-2,-3.3506558E-3,1.5780872E-2,-4.6729534E-3,3.3672787E-2,1.4926024E-2],"categories":[],"categories_nodes":[],"categories_segments":[],"categories_sizes":[],"default_left":[0,0,0,0,0,0,0,0,0,0,0,0,0,0,0,0,0],"id":30,"left_children":[1,-1,3,5,7,9,11,13,15,-1,-1,-1,-1,-1,-1,-1,-1],"loss_changes":[2.242032E0,0E0,2.3475199E0,2.4870534E0,1.5159101E0,1.5479343E0,6.69616E-1,2.122406E0,1.594387E0,0E0,0E0,0E0,0E0,0E0,0E0,0E0,0E0],"parents":[2147483647,0,0,2,2,3,3,4,4,5,5,6,6,7,7,8,8],"right_children":[2,-1,4,6,8,10,12,14,16,-1,-1,-1,-1,-1,-1,-1,-1],"split_conditions":[-1.232862E2,-2.5989017E-2,1.4690089E3,1.5642012E3,-1.2148285E1,1.4610087E3,1.6012441E3,-3.015255E1,1.1920315E1,8.307783E-4,-2.485594E-2,3.229828E-2,-3.3506558E-3,1.5780872E-2,-4.6729534E-3,3.3672787E-2,1.4926024E-2],"split_indices":[2,0,1,0,2,1,0,2,2,0,0,0,0,0,0,0,0],"split_type":[0,0,0,0,0,0,0,0,0,0,0,0,0,0,0,0,0],"sum_hessian":[1.5454393E2,3.124412E0,1.5141953E2,3.7799534E1,1.1361999E2,3.0698147E1,7.101387E0,5.6660995E1,5.6958992E1,2.3957518E1,6.7406297E0,5.6797075E0,1.4216799E0,3.854949E1,1.8111504E1,1.7205091E1,3.9753902E1],"tree_param":{"num_deleted":"0","num_feature":"7","num_nodes":"17","size_leaf_vector":"1"}},{"base_weights":[-2.579941E-1,-5.8572385E-2,-3.1731942E-1,-1.2814707E-1,5.151733E-1,-5.414072E-1,-2.6668975E-1,3.597863E-1,-2.2009057E-1,3.847645E-2,1.1591018E-3,-9.7276375E-2,-3.172215E-2,1.05450794E-1,-3.4102446E-1,-6.769038E-4,3.9127946E-2,-2.881301E-2,-4.7406065E-3,2.0496283E-2,-2.316052E-2,-4.4351984E-3,3.302005E-2,-3.1789508E-2,-1.3332287E-2],"categories":[],"categories_nodes":[],"categories_segments":[],"categories_sizes":[],"default_left":[0,0,0,0,0,0,0,0,0,0,0,0,0,0,0,0,0,0,0,0,0,0,0,0,0],"id":31,"left_children":[1,3,5,7,9,11,13,15,17,-1,-1,19,-1,21,23,-1,-1,-1,-1,-1,-1,-1,-1,-1,-1],"loss_changes":[1.5894165E0,1.3589417E0,1.0415316E0,1.4110248E0,4.4544226E-1,6.941676E-1,2.449122E0,8.1343025E-1,1.0876721E0,0E0,0E0,9.9715155E-1,0E0,1.7057687E0,1.4297743E0,0E0,0E0,0E0,0E0,0E0,0E0,0E0,0E0,0E0,0E0],"parents":[2147483647,0,0,1,1,2,2,3,3,4,4,5,5,6,6,7,7,8,8,11,11,13,13,14,14],"right_children":[2,4,6,8,10,12,14,16,18,-1,-1,20,-1,22,24,-1,-1,-1,-1,-1,-1,-1,-1,-1,-1],"split_conditions":[1.467713E3,1.4663279E3,-2.9160217E1,-1.03942345E2,1.492412E3,-1.0740879E2,-8.2186365E0,1.4515549E3,-7.138693E1,3.847645E-2,1.1591018E-3,1.4884275E3,-3.172215E-2,1.5012946E3,1.1920315E1,-6.769038E-4,3.9127946E-2,-2.881301E-2,-4.7406065E-3,2.0496283E-2,-2.316052E-2,-4.4351984E-3,3.302005E-2,-3.1789508E-2,-1.3332287E-2],"split_indices":[0,0,2,2,1,2,2,0,2,0,0,0,0,0,2,0,0,0,0,0,0,0,0,0,0],"split_type":[0,0,0,0,0,0,0,0,0,0,0,0,0,0,0,0,0,0,0,0,0,0,0,0,0],"sum_hessian":[1.3491711E2,3.138935E1,1.0352777E2,2.8687267E1,2.7020836E0,1.72934E1,8.623437E1,4.0866694E0,2.46006E1,1.4093498E0,1.2927338E0,3.3494558E0,1.3943944E1,1.4287667E1,7.19467E1,2.6843042E0,1.4023653E0,5.464645E0,1.9135954E1,1.3533838E0,1.996072E0,1.1206961E1,3.0807061E0,1.2975664E1,5.897104E1],"tree_param":{"num_deleted":"0","num_feature":"7","num_nodes":"25","size_leaf_vector":"1"}},{"base_weights":[9.299877E-3,2.0849112E-1,-7.362433E-2,2.5301132E-1,-2.3500143E-2,-2.1861534E-1,8.158324E-2,-1.237088E-1,3.0380616E-1,-1.5082133E-1,-5.2954096E-1,4.6615514E-1,3.221331E-3,-2.7621886E-2,1.703464E-2,2.9175902E-2,8.813399E-3,-1.3921029E-2,7.095884E-3,-2.2513352E-3,-3.1240005E-2,4.8063513E-2,-1.615576E-2,-6.3882703E-3,1.1231306E-2],"categories":[],"categories_nodes":[],"categories_segments":[],"categories_sizes":[],"default_left":[0,0,0,0,0,0,0,0,0,0,0,0,0,0,0,0,0,0,0,0,0,0,0,0,0],"id":32,"left_children":[1,3,5,7,-1,9,11,13,15,17,19,21,23,-1,-1,-1,-1,-1,-1,-1,-1,-1,-1,-1,-1],"loss_changes":[2.444721E0,1.432669E0,2.3713636E0,8.310175E-1,0E0,1.0656333E0,1.5426749E0,1.3105831E0,1.2109075E0,1.7582763E0,4.024737E-1,3.6973577E0,1.2923919E0,0E0,0E0,0E0,0E0,0E0,0E0,0E0,0E0,0E0,0E0,0E0,0E0],"parents":[2147483647,0,0,1,1,2,2,3,3,5,5,6,6,7,7,8,8,9,9,10,10,11,11,12,12],"right_children":[2,4,6,8,-1,10,12,14,16,18,20,22,24,-1,-1,-1,-1,-1,-1,-1,-1,-1,-1,-1,-1],"split_conditions":[1.4703928E3,1.75E0,1.5090532E3,-5E-1,-2.3500143E-2,2.2E0,1.4607903E3,5E-1,2.5515617E1,1.5010887E3,3.0564127E1,2E0,1.5579976E3,-2.7621886E-2,1.703464E-2,2.9175902E-2,8.813399E-3,-1.3921029E-2,7.095884E-3,-2.2513352E-3,-3.1240005E-2,4.8063513E-2,-1.615576E-2,-6.3882703E-3,1.1231306E-2],"split_indices":[1,4,1,5,0,3,0,3,2,0,2,4,1,0,0,0,0,0,0,0,0,0,0,0,0],"split_type":[0,0,0,0,0,0,0,0,0,0,0,0,0,0,0,0,0,0,0,0,0,0,0,0,0],"sum_hessian":[1.4607617E2,4.2492123E1,1.03584045E2,4.046412E1,2.0280035E0,5.3343426E1,5.0240623E1,4.637158E0,3.582696E1,4.5013733E1,8.329693E0,7.6666636E0,4.257396E1,2.3126154E0,2.3245423E0,1.0100244E1,2.5726717E1,3.138328E1,1.3630451E1,1.6105694E0,6.7191234E0,4.577341E0,3.0893226E0,2.7014605E1,1.5559356E1],"tree_param":{"num_deleted":"0","num_feature":"7","num_nodes":"25","size_leaf_vector":"1"}},{"base_weights":[2.0782566E-1,1.093095E-1,3.4916097E-1,-3.1234134E-2,2.267641E-1,4.1126782E-1,-1.4153655E-1,-1.3490525E-1,2.041718E-1,-3.0762678E-1,3.0099952E-1,5.0716263E-1,8.7163985E-2,1.6796965E-2,-4.0329677E-1,1.7823238E-2,-1.0259476E-2,1.823786E-2,-4.770788E-3,-1.9849418E-2,2.4422312E-3,2.468067E-2,8.123248E-3,2.7282715E-2,-1.0713416E-2,-1.3036221E-2,2.8328141E-2,8.4616145E-4,-2.676524E-2],"categories":[],"categories_nodes":[],"categories_segments":[],"categories_sizes":[],"default_left":[0,0,0,0,0,0,0,0,0,0,0,0,0,0,0,0,0,0,0,0,0,0,0,0,0,0,0,0,0],"id":33,"left_children":[1,3,5,7,9,11,13,15,17,19,21,23,25,-1,27,-1,-1,-1,-1,-1,-1,-1,-1,-1,-1,-1,-1,-1,-1],"loss_changes":[2.1326356E0,1.5476454E0,1.9958735E0,1.0858697E0,2.114199E0,1.7178221E0,1.1212547E0,1.1336904E0,6.918162E-1,2.3314315E-1,1.127224E0,1.326026E0,2.5079322E0,0E0,3.1686473E-1,0E0,0E0,0E0,0E0,0E0,0E0,0E0,0E0,0E0,0E0,0E0,0E0,0E0,0E0],"parents":[2147483647,0,0,1,1,2,2,3,3,4,4,5,5,6,6,7,7,8,8,9,9,10,10,11,11,12,12,14,14],"right_children":[2,4,6,8,10,12,14,16,18,20,22,24,26,-1,28,-1,-1,-1,-1,-1,-1,-1,-1,-1,-1,-1,-1,-1,-1],"split_conditions":[1.6E0,1.487661E3,1.5403058E3,1.5005005E3,-1.03942345E2,9.1245674E1,-7.126881E1,1.4373225E3,8E-1,1.6118226E3,-8E-1,2.4E0,1.290313E2,1.6796965E-2,1.25E0,1.7823238E-2,-1.0259476E-2,1.823786E-2,-4.770788E-3,-1.9849418E-2,2.4422312E-3,2.468067E-2,8.123248E-3,2.7282715E-2,-1.0713416E-2,-1.3036221E-2,2.8328141E-2,8.4616145E-4,-2.676524E-2],"split_indices":[3,1,1,0,2,2,2,1,6,1,5,4,2,0,4,0,0,0,0,0,0,0,0,0,0,0,0,0,0],"split_type":[0,0,0,0,0,0,0,0,0,0,0,0,0,0,0,0,0,0,0,0,0,0,0,0,0,0,0,0,0],"sum_hessian":[1.5490572E2,9.232503E1,6.2580685E1,4.2365482E1,4.995955E1,5.5693516E1,6.887171E0,2.9708843E1,1.2656639E1,5.7101994E0,4.4249348E1,4.254162E1,1.3151898E1,2.338371E0,4.5488E0,3.2081723E0,2.6500671E1,8.098264E0,4.5583754E0,4.474783E0,1.235416E0,1.7439268E1,2.6810081E1,4.0618107E1,1.9235117E0,7.8856273E0,5.2662706E0,1.2957746E0,3.2530253E0],"tree_param":{"num_deleted":"0","num_feature":"7","num_nodes":"29","size_leaf_vector":"1"}},{"base_weights":[-2.5077313E-1,-5.3881213E-2,-3.0966383E-1,-1.2241395E-1,5.049218E-1,-5.333575E-1,-2.59522E-1,3.5655016E-1,-2.1351029E-1,1.1721996E-3,3.759913E-2,-9.2970036E-2,-3.1346172E-2,1.0160877E-1,-3.326458E-1,-4.7943273E-4,3.8274877E-2,-2.4691977E-2,-3.0238172E-3,2.0271912E-2,-2.2869956E-2,-4.423157E-3,3.2014605E-2,-3.1359285E-2,-1.2959637E-2],"categories":[],"categories_nodes":[],"categories_segments":[],"categories_sizes":[],"default_left":[0,0,0,0,0,0,0,0,0,0,0,0,0,0,0,0,0,0,0,0,0,0,0,0,0],"id":34,"left_children":[1,3,5,7,9,11,13,15,17,-1,-1,19,-1,21,23,-1,-1,-1,-1,-1,-1,-1,-1,-1,-1],"loss_changes":[1.5451584E0,1.2958422E0,1.0222034E0,1.3636146E0,4.24326E-1,6.8339205E-1,2.3173857E0,7.694653E-1,1.0605638E0,0E0,0E0,9.716013E-1,0E0,1.626013E0,1.3983526E0,0E0,0E0,0E0,0E0,0E0,0E0,0E0,0E0,0E0,0E0],"parents":[2147483647,0,0,1,1,2,2,3,3,4,4,5,5,6,6,7,7,8,8,11,11,13,13,14,14],"right_children":[2,4,6,8,10,12,14,16,18,-1,-1,20,-1,22,24,-1,-1,-1,-1,-1,-1,-1,-1,-1,-1],"split_conditions":[1.467713E3,1.4663279E3,-2.9160217E1,-1.03942345E2,1E0,-1.0740879E2,-8.2186365E0,1.4515549E3,-6.1379017E1,1.1721996E-3,3.759913E-2,1.4884275E3,-3.1346172E-2,1.5012946E3,1.1920315E1,-4.7943273E-4,3.8274877E-2,-2.4691977E-2,-3.0238172E-3,2.0271912E-2,-2.2869956E-2,-4.423157E-3,3.2014605E-2,-3.1359285E-2,-1.2959637E-2],"split_indices":[0,0,2,2,3,2,2,0,2,0,0,0,0,0,2,0,0,0,0,0,0,0,0,0,0],"split_type":[0,0,0,0,0,0,0,0,0,0,0,0,0,0,0,0,0,0,0,0,0,0,0,0,0],"sum_hessian":[1.3369856E2,3.122329E1,1.0247527E2,2.8507952E1,2.715338E0,1.6999561E1,8.5475716E1,4.089946E0,2.4418005E1,1.2921189E0,1.4232191E0,3.3282218E0,1.3671339E1,1.43276E1,7.114812E1,2.6731625E0,1.4167833E0,7.8363333E0,1.6581673E1,1.3581837E0,1.970038E0,1.12085085E1,3.1190913E0,1.2696749E1,5.8451366E1],"tree_param":{"num_deleted":"0","num_feature":"7","num_nodes":"25","size_leaf_vector":"1"}},{"base_weights":[9.378821E-3,2.2536488E-1,-6.2062453E-2,2.6867577E-1,-2.1854896E-2,1.6718264E-1,-1.4834355E-1,5.778696E-1,1.6718796E-1,4.2790717E-1,-2.0090949E-2,-2.135003E-1,1.7220293E-1,1.3316475E-2,4.250248E-2,-2.5937771E-2,1.2340663E-2,-8.462352E-3,3.3830993E-2,-2.7829174E-2,6.6350014E-3,-2.4118079E-2,-6.53819E-3,-1.8112918E-2,1.7985445E-2],"categories":[],"categories_nodes":[],"categories_segments":[],"categories_sizes":[],"default_left":[0,0,0,0,0,0,0,0,0,0,0,0,0,0,0,0,0,0,0,0,0,0,0,0,0],"id":35,"left_children":[1,3,5,7,-1,9,11,13,15,17,19,21,23,-1,-1,-1,-1,-1,-1,-1,-1,-1,-1,-1,-1],"loss_changes":[2.2804086E0,1.1711128E0,2.223437E0,1.0044761E0,0E0,1.5156982E0,1.7345903E0,4.7437286E-1,1.64781E0,2.0374994E0,1.6246392E0,1.4496713E0,1.561975E0,0E0,0E0,0E0,0E0,0E0,0E0,0E0,0E0,0E0,0E0,0E0,0E0],"parents":[2147483647,0,0,1,1,2,2,3,3,5,5,6,6,7,7,8,8,9,9,10,10,11,11,12,12],"right_children":[2,4,6,8,-1,10,12,14,16,18,20,22,24,-1,-1,-1,-1,-1,-1,-1,-1,-1,-1,-1,-1],"split_conditions":[1.4674763E3,1.75E0,5E-1,2.1069511E1,-2.1854896E-2,1.4663279E3,1.5356556E3,1.4557742E3,1.4723617E3,-1.2E0,1.5014989E3,1.4735292E3,-1.01484314E2,1.3316475E-2,4.250248E-2,-2.5937771E-2,1.2340663E-2,-8.462352E-3,3.3830993E-2,-2.7829174E-2,6.6350014E-3,-2.4118079E-2,-6.53819E-3,-1.8112918E-2,1.7985445E-2],"split_indices":[1,4,6,2,0,0,1,0,0,5,1,0,2,0,0,0,0,0,0,0,0,0,0,0,0],"split_type":[0,0,0,0,0,0,0,0,0,0,0,0,0,0,0,0,0,0,0,0,0,0,0,0,0],"sum_hessian":[1.4588107E2,3.5723835E1,1.1015724E2,3.4089535E1,1.6342976E0,2.9866255E1,8.0290985E1,7.2642426E0,2.6825293E1,1.1947656E1,1.79186E1,6.700498E1,1.3286004E1,4.3097563E0,2.9544864E0,2.2164462E0,2.4608847E1,3.6069496E0,8.340707E0,3.3861365E0,1.4532463E1,1.4630735E1,5.237425E1,3.2085285E0,1.0077476E1],"tree_param":{"num_deleted":"0","num_feature":"7","num_nodes":"25","size_leaf_vector":"1"}},{"base_weights":[1.9965975E-1,-2.5488088E-2,2.1706001E-1,1.4707968E-2,2.8322622E-1,-1.07727796E-1,4.8681095E-1,1.6917083E-1,3.9153898E-1,6.1757513E-4,-2.4346514E-2,3.803247E-2,7.142977E-3,1.4625517E-2,-4.8533534E-3,3.1643283E-2,1.3693735E-2],"categories":[],"categories_nodes":[],"categories_segments":[],"categories_sizes":[],"default_left":[0,0,0,0,0,0,0,0,0,0,0,0,0,0,0,0,0],"id":36,"left_children":[1,-1,3,5,7,9,11,13,15,-1,-1,-1,-1,-1,-1,-1,-1],"loss_changes":[2.0377007E0,0E0,2.045333E0,2.293687E0,1.3581467E0,1.445272E0,6.6047966E-1,1.9304236E0,1.4843588E0,0E0,0E0,0E0,0E0,0E0,0E0,0E0,0E0],"parents":[2147483647,0,0,2,2,3,3,4,4,5,5,6,6,7,7,8,8],"right_children":[2,-1,4,6,8,10,12,14,16,-1,-1,-1,-1,-1,-1,-1,-1],"split_conditions":[-1.232862E2,-2.5488088E-2,1.4690089E3,1.5642012E3,-1.2148285E1,1.4610087E3,1.25E0,-3.015255E1,1.1920315E1,6.1757513E-4,-2.4346514E-2,3.803247E-2,7.142977E-3,1.4625517E-2,-4.8533534E-3,3.1643283E-2,1.3693735E-2],"split_indices":[2,0,1,0,2,1,4,2,2,0,0,0,0,0,0,0,0],"split_type":[0,0,0,0,0,0,0,0,0,0,0,0,0,0,0,0,0],"sum_hessian":[1.5511089E2,3.0359695E0,1.520749E2,3.777431E1,1.143006E2,3.0608164E1,7.1661463E0,5.692226E1,5.7378338E1,2.3981533E1,6.626631E0,3.3152184E0,3.8509278E0,3.883334E1,1.8088923E1,1.737141E1,4.0006924E1],"tree_param":{"num_deleted":"0","num_feature":"7","num_nodes":"17","size_leaf_vector":"1"}},{"base_weights":[-2.4388741E-1,-7.531838E-2,-3.1086424E-1,-2.573521E-1,5.4011628E-2,-5.315066E-1,-2.7590623E-1,2.0703064E-2,-3.43807E-1,-2.6441107E-2,1.7046766E-1,-2.017992E-3,-3.0176973E-2,-7.16159E-2,-3.2895947E-1,-2.0987943E-2,7.994882E-4,-6.1914898E-3,1.6640022E-2,-1.9831987E-2,1.1843547E-2,-2.1818443E-3,-1.8657727E-2],"categories":[],"categories_nodes":[],"categories_segments":[],"categories_sizes":[],"default_left":[0,0,0,0,0,0,0,0,0,0,0,0,0,0,0,0,0,0,0,0,0,0,0],"id":37,"left_children":[1,3,5,7,9,11,13,-1,15,-1,17,-1,-1,19,21,-1,-1,-1,-1,-1,-1,-1,-1],"loss_changes":[1.4834127E0,9.384021E-1,5.876026E-1,1.0992466E0,1.7045337E0,3.9806247E-1,8.896022E-1,0E0,4.2073524E-1,0E0,1.0244067E0,0E0,0E0,1.9636792E0,8.2360506E-1,0E0,0E0,0E0,0E0,0E0,0E0,0E0,0E0],"parents":[2147483647,0,0,1,1,2,2,3,3,4,4,5,5,6,6,8,8,10,10,13,13,14,14],"right_children":[2,4,6,8,10,12,14,-1,16,-1,18,-1,-1,20,22,-1,-1,-1,-1,-1,-1,-1,-1],"split_conditions":[1.4727916E3,3.75E-1,1.484E3,1.4065193E3,1.4323197E3,7.5E-1,-5E-1,2.0703064E-2,1E-1,-2.6441107E-2,1.470959E3,-2.017992E-3,-3.0176973E-2,-3.3311684E1,4E-1,-2.0987943E-2,7.994882E-4,-6.1914898E-3,1.6640022E-2,-1.9831987E-2,1.1843547E-2,-2.1818443E-3,-1.8657727E-2],"split_indices":[0,6,0,0,0,4,5,0,5,0,1,0,0,2,6,0,0,0,0,0,0,0,0],"split_type":[0,0,0,0,0,0,0,0,0,0,0,0,0,0,0,0,0,0,0,0,0,0,0],"sum_hessian":[1.3246306E2,3.826962E1,9.4193436E1,1.5484744E1,2.2784874E1,1.0939995E1,8.325344E1,1.3341703E0,1.4150574E1,3.2047803E0,1.9580095E1,1.5988357E0,9.341159E0,1.7647741E1,6.56057E1,1.1546494E1,2.6040802E0,7.0450745E0,1.253502E1,8.454385E0,9.193357E0,9.065622E0,5.6540077E1],"tree_param":{"num_deleted":"0","num_feature":"7","num_nodes":"23","size_leaf_vector":"1"}},{"base_weights":[9.416551E-3,2.9556528E-1,-4.20256E-2,-2.112905E-1,4.074255E-1,1.6421613E-1,-1.1413379E-1,1.6500784E-2,-2.7421374E-2,1.9119053E-1,4.2913403E-2,4.1488415E-1,-3.2267746E-4,-1.6299249E-1,1.6708301E-1,-1.0839665E-2,1.8921643E-2,4.20497E-3,4.488797E-2,-7.4559115E-3,2.1708643E-2,-8.29603E-4,-1.4594055E-2,2.8602142E-2,-4.2876806E-3],"categories":[],"categories_nodes":[],"categories_segments":[],"categories_sizes":[],"default_left":[0,0,0,0,0,0,0,0,0,0,0,0,0,0,0,0,0,0,0,0,0,0,0,0,0],"id":38,"left_children":[1,3,5,7,9,11,13,-1,-1,15,-1,17,19,21,23,-1,-1,-1,-1,-1,-1,-1,-1,-1,-1],"loss_changes":[2.1710658E0,1.3600907E0,1.880318E0,1.0425494E0,1.663748E0,1.3545043E0,1.309688E0,0E0,0E0,1.1483454E0,0E0,2.003144E0,1.4110246E0,1.5052347E0,1.5142331E0,0E0,0E0,0E0,0E0,0E0,0E0,0E0,0E0,0E0,0E0],"parents":[2147483647,0,0,1,1,2,2,3,3,4,4,5,5,6,6,9,9,11,11,12,12,13,13,14,14],"right_children":[2,4,6,8,10,12,14,-1,-1,16,-1,18,20,22,24,-1,-1,-1,-1,-1,-1,-1,-1,-1,-1],"split_conditions":[1.4550364E3,0E0,5E-1,5.833333E-1,1.445953E3,1.4663279E3,1.5356556E3,1.6500784E-2,-2.7421374E-2,6.582596E1,4.2913403E-2,-5.880175E1,1.5594916E3,1.25E0,1.5699613E3,-1.0839665E-2,1.8921643E-2,4.20497E-3,4.488797E-2,-7.4559115E-3,2.1708643E-2,-8.29603E-4,-1.4594055E-2,2.8602142E-2,-4.2876806E-3],"split_indices":[1,5,6,6,1,0,1,0,0,2,0,2,1,4,1,0,0,0,0,0,0,0,0,0,0],"split_type":[0,0,0,0,0,0,0,0,0,0,0,0,0,0,0,0,0,0,0,0,0,0,0,0,0],"sum_hessian":[1.45646E2,2.1470427E1,1.2417557E2,3.7210224E0,1.7749403E1,3.1837505E1,9.233806E1,1.4361948E0,2.2848277E0,1.29583435E1,4.79106E0,1.2013675E1,1.982383E1,7.902809E1,1.3309967E1,4.026704E0,8.931639E0,7.8264647E0,4.1872106E0,1.5256094E1,4.567737E0,3.752892E1,4.1499172E1,4.6306744E0,8.679293E0],"tree_param":{"num_deleted":"0","num_feature":"7","num_nodes":"25","size_leaf_vector":"1"}},{"base_weights":[1.9166495E-1,-2.5276652E-2,2.0861188E-1,1.3540373E-2,2.7218726E-1,-1.062785E-1,4.7269523E-1,1.629903E-1,3.7567294E-1,5.8614305E-4,-2.4079202E-2,3.2771107E-2,8.100925E-4,1.3105785E-2,-7.5451205E-3,3.0533943E-2,1.3056122E-2],"categories":[],"categories_nodes":[],"categories_segments":[],"categories_sizes":[],"default_left":[0,0,0,0,0,0,0,0,0,0,0,0,0,0,0,0,0],"id":39,"left_children":[1,-1,3,5,7,9,11,13,15,-1,-1,-1,-1,-1,-1,-1,-1],"loss_changes":[1.9531412E0,0E0,1.8984509E0,2.1822104E0,1.2453594E0,1.4028385E0,6.736531E-1,1.8450178E0,1.418005E0,0E0,0E0,0E0,0E0,0E0,0E0,0E0,0E0],"parents":[2147483647,0,0,2,2,3,3,4,4,5,5,6,6,7,7,8,8],"right_children":[2,-1,4,6,8,10,12,14,16,-1,-1,-1,-1,-1,-1,-1,-1],"split_conditions":[-1.232862E2,-2.5276652E-2,1.4690089E3,1.5642012E3,-1.2148285E1,1.4610087E3,2.3333333E0,-2.6116463E1,1.1920315E1,5.8614305E-4,-2.4079202E-2,3.2771107E-2,8.100925E-4,1.3105785E-2,-7.5451205E-3,3.0533943E-2,1.3056122E-2],"split_indices":[2,0,1,0,2,1,3,2,2,0,0,0,0,0,0,0,0],"split_type":[0,0,0,0,0,0,0,0,0,0,0,0,0,0,0,0,0],"sum_hessian":[1.5537956E2,3.0030594E0,1.5237651E2,3.775228E1,1.1462423E2,3.0548916E1,7.2033653E0,5.7026016E1,5.7598213E1,2.39785E1,6.5704155E0,4.8330135E0,2.3703518E0,4.3464993E1,1.3561023E1,1.7455767E1,4.0142445E1],"tree_param":{"num_deleted":"0","num_feature":"7","num_nodes":"17","size_leaf_vector":"1"}},{"base_weights":[-2.3739873E-1,-4.6310905E-2,-2.9521507E-1,-1.135105E-1,4.9242532E-1,-5.204403E-1,-2.4528953E-1,3.4888655E-1,-2.0294781E-1,3.6756456E-2,1.024713E-3,-8.1617236E-2,-3.0793775E-2,1.04151554E-1,-3.1738773E-1,-3.3940971E-4,3.7014075E-2,-2.7969664E-2,-4.050797E-3,2.0309644E-2,-2.235633E-2,-4.1733794E-3,3.1455804E-2,-3.079999E-2,-1.2192208E-2],"categories":[],"categories_nodes":[],"categories_segments":[],"categories_sizes":[],"default_left":[0,0,0,0,0,0,0,0,0,0,0,0,0,0,0,0,0,0,0,0,0,0,0,0,0],"id":40,"left_children":[1,3,5,7,9,11,13,15,17,-1,-1,19,-1,21,23,-1,-1,-1,-1,-1,-1,-1,-1,-1,-1],"loss_changes":[1.4485707E0,1.2118386E0,1.0128021E0,1.2784383E0,4.119823E-1,6.831088E-1,2.1723423E0,7.15061E-1,1.0456096E0,0E0,0E0,9.449007E-1,0E0,1.5570896E0,1.4010353E0,0E0,0E0,0E0,0E0,0E0,0E0,0E0,0E0,0E0,0E0],"parents":[2147483647,0,0,1,1,2,2,3,3,4,4,5,5,6,6,7,7,8,8,11,11,13,13,14,14],"right_children":[2,4,6,8,10,12,14,16,18,-1,-1,20,-1,22,24,-1,-1,-1,-1,-1,-1,-1,-1,-1,-1],"split_conditions":[1.467713E3,1.4663279E3,-2.9160217E1,-1.03942345E2,1.492412E3,-1.0740879E2,-8.2186365E0,1.4515549E3,-7.138693E1,3.6756456E-2,1.024713E-3,1.4884275E3,-3.0793775E-2,1.5012946E3,1.1920315E1,-3.3940971E-4,3.7014075E-2,-2.7969664E-2,-4.050797E-3,2.0309644E-2,-2.235633E-2,-4.1733794E-3,3.1455804E-2,-3.079999E-2,-1.2192208E-2],"split_indices":[0,0,2,2,1,2,2,0,2,0,0,0,0,0,2,0,0,0,0,0,0,0,0,0,0],"split_type":[0,0,0,0,0,0,0,0,0,0,0,0,0,0,0,0,0,0,0,0,0,0,0,0,0],"sum_hessian":[1.3135355E2,3.0929613E1,1.00423935E2,2.820122E1,2.728394E0,1.6511686E1,8.391225E1,4.100491E0,2.4100727E1,1.4334816E0,1.2949126E0,3.2809014E0,1.3230785E1,1.4275936E1,6.963631E1,2.663096E0,1.4373952E0,5.228478E0,1.887225E1,1.3576589E0,1.9232428E0,1.1136737E1,3.139199E0,1.2303578E1,5.7332733E1],"tree_param":{"num_deleted":"0","num_feature":"7","num_nodes":"25","size_leaf_vector":"1"}},{"base_weights":[9.892554E-3,2.1383469E-1,-5.814298E-2,1.2632918E-1,5.820142E-1,1.580673E-1,-1.4048152E-1,2.8652182E-1,-2.668804E-1,3.7160423E-2,-1.5576173E-3,4.0311506E-1,-1.9826153E-2,-2.034301E-1,1.6519909E-1,-1.0456904E-2,1.9767439E-2,-2.0801147E-2,1.6934486E-2,3.0076547E-2,-1.3656481E-2,-2.7422791E-2,6.4353393E-3,-2.353064E-2,-6.1006104E-3,-1.7652828E-2,1.723986E-2],"categories":[],"categories_nodes":[],"categories_segments":[],"categories_sizes":[],"default_left":[0,0,0,0,0,0,0,0,0,0,0,0,0,0,0,0,0,0,0,0,0,0,0,0,0,0,0],"id":41,"left_children":[1,3,5,7,9,11,13,15,17,-1,-1,19,21,23,25,-1,-1,-1,-1,-1,-1,-1,-1,-1,-1,-1,-1],"loss_changes":[2.0435147E0,1.1130912E0,1.990262E0,2.0313816E0,6.948106E-1,1.3576012E0,1.5843343E0,1.2981963E0,9.99052E-1,0E0,0E0,1.9178452E0,1.5538807E0,1.4060726E0,1.4540234E0,0E0,0E0,0E0,0E0,0E0,0E0,0E0,0E0,0E0,0E0,0E0,0E0],"parents":[2147483647,0,0,1,1,2,2,3,3,4,4,5,5,6,6,7,7,8,8,11,11,12,12,13,13,14,14],"right_children":[2,4,6,8,10,12,14,16,18,-1,-1,20,22,24,26,-1,-1,-1,-1,-1,-1,-1,-1,-1,-1,-1,-1],"split_conditions":[1.4674763E3,1.4613857E3,5E-1,1.4550364E3,1.4975237E3,1.4663279E3,1.5356556E3,0E0,2.6E0,3.7160423E-2,-1.5576173E-3,2.2E0,1.5014989E3,1.4735292E3,-1.01484314E2,-1.0456904E-2,1.9767439E-2,-2.0801147E-2,1.6934486E-2,3.0076547E-2,-1.3656481E-2,-2.7422791E-2,6.4353393E-3,-2.353064E-2,-6.1006104E-3,-1.7652828E-2,1.723986E-2],"split_indices":[1,1,6,1,0,0,1,5,3,0,0,4,1,0,2,0,0,0,0,0,0,0,0,0,0,0,0],"split_type":[0,0,0,0,0,0,0,0,0,0,0,0,0,0,0,0,0,0,0,0,0,0,0,0,0,0,0],"sum_hessian":[1.4538098E2,3.5831154E1,1.0954983E2,3.0035671E1,5.7954817E0,2.9959734E1,7.959009E1,2.153407E1,8.501603E0,4.421135E0,1.3743467E0,1.2068861E1,1.7890873E1,6.627635E1,1.3313742E1,3.7108765E0,1.7823193E1,7.0727105E0,1.4288927E0,9.416472E0,2.652389E0,3.333706E0,1.4557167E1,1.4362816E1,5.1913532E1,3.1778355E0,1.0135906E1],"tree_param":{"num_deleted":"0","num_feature":"7","num_nodes":"27","size_leaf_vector":"1"}},{"base_weights":[1.8401591E-1,9.148786E-2,3.1676006E-1,-4.0450804E-2,2.0164995E-1,3.754093E-1,-1.4753196E-1,-1.045749E-1,3.0716908E-1,-2.977152E-1,2.6950002E-1,-4.7696438E-2,4.4140685E-1,1.5650477E-2,-4.0187648E-1,8.62424E-3,-1.2380467E-2,4.642432E-2,-1.734193E-2,-1.9379983E-2,2.7270901E-3,2.278854E-2,6.8012625E-3,2.9714843E-2,-2.4395442E-2,4.3056246E-2,1.8749727E-2,-2.660502E-2,5.8066304E-4],"categories":[],"categories_nodes":[],"categories_segments":[],"categories_sizes":[],"default_left":[0,0,0,0,0,0,0,0,0,0,0,0,0,0,0,0,0,0,0,0,0,0,0,0,0,0,0,0,0],"id":42,"left_children":[1,3,5,7,9,11,13,15,17,19,21,23,25,-1,27,-1,-1,-1,-1,-1,-1,-1,-1,-1,-1,-1,-1,-1,-1],"loss_changes":[1.8941197E0,1.3695824E0,1.7955117E0,1.0007496E0,1.8154488E0,1.6132488E0,1.0493948E0,1.5261316E0,3.1751661E0,2.3015267E-1,1.072036E0,2.7194178E0,1.0547113E0,0E0,3.0327117E-1,0E0,0E0,0E0,0E0,0E0,0E0,0E0,0E0,0E0,0E0,0E0,0E0,0E0,0E0],"parents":[2147483647,0,0,1,1,2,2,3,3,4,4,5,5,6,6,7,7,8,8,9,9,10,10,11,11,12,12,14,14],"right_children":[2,4,6,8,10,12,14,16,18,20,22,24,26,-1,28,-1,-1,-1,-1,-1,-1,-1,-1,-1,-1,-1,-1,-1,-1],"split_conditions":[1.6E0,1.487661E3,1.5403058E3,6.5E-1,-1.03942345E2,5E-1,-7.126881E1,-5E-1,1.4579291E3,1.6118226E3,-8E-1,1.6604984E1,0E0,1.5650477E-2,1.580933E3,8.62424E-3,-1.2380467E-2,4.642432E-2,-1.734193E-2,-1.9379983E-2,2.7270901E-3,2.278854E-2,6.8012625E-3,2.9714843E-2,-2.4395442E-2,4.3056246E-2,1.8749727E-2,-2.660502E-2,5.8066304E-4],"split_indices":[3,1,1,5,2,6,2,5,1,1,5,2,5,0,0,0,0,0,0,0,0,0,0,0,0,0,0,0,0],"split_type":[0,0,0,0,0,0,0,0,0,0,0,0,0,0,0,0,0,0,0,0,0,0,0,0,0,0,0,0,0],"sum_hessian":[1.5557155E2,9.266765E1,6.2903896E1,4.2454113E1,5.021353E1,5.6019028E1,6.8848696E0,3.6432686E1,6.021427E0,5.601271E0,4.4612263E1,7.596389E0,4.8422638E1,2.3674598E0,4.51741E0,1.2334565E1,2.4098122E1,2.8726647E0,3.1487627E0,4.382634E0,1.2186371E0,1.761499E1,2.6997272E1,2.947628E0,4.6487603E0,4.980445E0,4.3442196E1,3.2173038E0,1.3001062E0],"tree_param":{"num_deleted":"0","num_feature":"7","num_nodes":"29","size_leaf_vector":"1"}},{"base_weights":[-2.3083359E-1,-4.309442E-2,-2.8797403E-1,-1.0909102E-1,4.8073465E-1,-5.1337653E-1,-2.3841466E-1,3.4268558E-1,-1.9727726E-1,3.577176E-2,1.0414564E-3,-8.019508E-2,-3.0455953E-2,1.0220466E-1,-3.0955222E-1,-2.9854217E-4,3.617983E-2,-2.7651167E-2,-3.8538713E-3,1.9967308E-2,-2.2154538E-2,-4.1239206E-3,3.0767504E-2,-3.0411521E-2,-1.1848523E-2],"categories":[],"categories_nodes":[],"categories_segments":[],"categories_sizes":[],"default_left":[0,0,0,0,0,0,0,0,0,0,0,0,0,0,0,0,0,0,0,0,0,0,0,0,0],"id":43,"left_children":[1,3,5,7,9,11,13,15,17,-1,-1,19,-1,21,23,-1,-1,-1,-1,-1,-1,-1,-1,-1,-1],"loss_changes":[1.3946853E0,1.1511998E0,9.9897957E-1,1.2246306E0,3.8892013E-1,6.655936E-1,2.0708609E0,6.827496E-1,1.023529E0,0E0,0E0,9.199949E-1,0E0,1.4999132E0,1.3704801E0,0E0,0E0,0E0,0E0,0E0,0E0,0E0,0E0,0E0,0E0],"parents":[2147483647,0,0,1,1,2,2,3,3,4,4,5,5,6,6,7,7,8,8,11,11,13,13,14,14],"right_children":[2,4,6,8,10,12,14,16,18,-1,-1,20,-1,22,24,-1,-1,-1,-1,-1,-1,-1,-1,-1,-1],"split_conditions":[1.467713E3,1.4663279E3,-2.9160217E1,-1.03942345E2,1.492412E3,-1.0740879E2,-8.2186365E0,1E0,-7.138693E1,3.577176E-2,1.0414564E-3,1.4884275E3,-3.0455953E-2,1.5012946E3,1.1920315E1,-2.9854217E-4,3.617983E-2,-2.7651167E-2,-3.8538713E-3,1.9967308E-2,-2.2154538E-2,-4.1239206E-3,3.0767504E-2,-3.0411521E-2,-1.1848523E-2],"split_indices":[0,0,2,2,1,2,2,3,2,0,0,0,0,0,2,0,0,0,0,0,0,0,0,0,0],"split_type":[0,0,0,0,0,0,0,0,0,0,0,0,0,0,0,0,0,0,0,0,0,0,0,0,0],"sum_hessian":[1.3016718E2,3.0782646E1,9.938453E1,2.8041477E1,2.7411692E0,1.6226309E1,8.315822E1,4.1083813E0,2.3933096E1,1.4470782E0,1.2940911E0,3.269818E0,1.29564905E1,1.4291456E1,6.886676E1,2.6589286E0,1.4494526E0,5.134892E0,1.8798204E1,1.3652682E0,1.9045498E0,1.1126319E1,3.1651378E0,1.2020745E1,5.6846016E1],"tree_param":{"num_deleted":"0","num_feature":"7","num_nodes":"25","size_leaf_vector":"1"}},{"base_weights":[1.0033816E-2,2.7761143E-1,-3.8636595E-2,1.0524848E-1,6.245114E-1,1.561317E-1,-1.0740588E-1,-2.2413838E-1,3.116183E-1,-4.7482033E-3,4.0956642E-2,3.927616E-1,-6.0754485E-4,-1.5472792E-1,1.6194156E-1,-2.7880296E-2,9.428339E-3,3.778441E-2,-9.5822725E-5,3.705813E-3,4.2694077E-2,-7.2699077E-3,2.0871198E-2,-1.9999988E-2,-3.9746473E-3,2.7691469E-2,-4.2275395E-3],"categories":[],"categories_nodes":[],"categories_segments":[],"categories_sizes":[],"default_left":[0,0,0,0,0,0,0,0,0,0,0,0,0,0,0,0,0,0,0,0,0,0,0,0,0,0,0],"id":44,"left_children":[1,3,5,7,9,11,13,15,17,-1,-1,19,21,23,25,-1,-1,-1,-1,-1,-1,-1,-1,-1,-1,-1,-1],"loss_changes":[1.9136543E0,1.2861758E0,1.6844587E0,1.1783553E0,1.1003065E0,1.220395E0,1.2054906E0,1.0496818E0,1.4556237E0,0E0,0E0,1.8629887E0,1.3189332E0,1.4312212E0,1.4308908E0,0E0,0E0,0E0,0E0,0E0,0E0,0E0,0E0,0E0,0E0,0E0,0E0],"parents":[2147483647,0,0,1,1,2,2,3,3,4,4,5,5,6,6,7,7,8,8,11,11,12,12,13,13,14,14],"right_children":[2,4,6,8,10,12,14,16,18,-1,-1,20,22,24,26,-1,-1,-1,-1,-1,-1,-1,-1,-1,-1,-1,-1],"split_conditions":[1.4550364E3,1.445953E3,5E-1,6.582596E1,0E0,1.4663279E3,1.5356556E3,1.4373225E3,8.6832054E1,-4.7482033E-3,4.0956642E-2,-5.880175E1,1.5594916E3,-5E-1,1.5699613E3,-2.7880296E-2,9.428339E-3,3.778441E-2,-9.5822725E-5,3.705813E-3,4.2694077E-2,-7.2699077E-3,2.0871198E-2,-1.9999988E-2,-3.9746473E-3,2.7691469E-2,-4.2275395E-3],"split_indices":[1,1,6,2,5,0,1,1,2,0,0,2,1,5,1,0,0,0,0,0,0,0,0,0,0,0,0],"split_type":[0,0,0,0,0,0,0,0,0,0,0,0,0,0,0,0,0,0,0,0,0,0,0,0,0,0,0],"sum_hessian":[1.4511932E2,2.1609863E1,1.2350947E2,1.5307486E1,6.3023777E0,3.1897898E1,9.1611565E1,5.863174E0,9.444312E0,1.4508696E0,4.851508E0,1.2109822E1,1.9788076E1,7.828339E1,1.332818E1,3.0487063E0,2.8144674E0,3.3249097E0,6.1194024E0,7.84764E0,4.262182E0,1.5181835E1,4.606241E0,1.7362766E1,6.092062E1,4.6648655E0,8.663315E0],"tree_param":{"num_deleted":"0","num_feature":"7","num_nodes":"27","size_leaf_vector":"1"}},{"base_weights":[1.7677768E-1,8.311567E-2,3.0142075E-1,-5.8083784E-2,1.9317901E-1,-3.409316E-1,3.38068E-1,-1.2794974E-1,3.973551E-1,-2.9027584E-1,2.581549E-1,-6.1487005E-4,-2.459978E-2,5.848924E-1,2.0770232E-1,8.188243E-3,-1.4422662E-2,4.269892E-2,-1.0589806E-2,-1.8985633E-2,2.796888E-3,1.5561387E-3,1.7773768E-2,3.458685E-2,7.217447E-3,-1.3297136E-2,1.4555508E-2],"categories":[],"categories_nodes":[],"categories_segments":[],"categories_sizes":[],"default_left":[0,0,0,0,0,0,0,0,0,0,0,0,0,0,0,0,0,0,0,0,0,0,0,0,0,0,0],"id":45,"left_children":[1,3,5,7,9,11,13,15,17,19,21,-1,-1,23,25,-1,-1,-1,-1,-1,-1,-1,-1,-1,-1,-1,-1],"loss_changes":[1.8036981E0,1.4226408E0,1.6884089E0,1.3411808E0,1.6854192E0,1.9772851E-1,1.9289522E0,1.7288055E0,1.7488075E0,2.23894E-1,9.9919057E-1,0E0,0E0,9.108968E-1,1.786016E0,0E0,0E0,0E0,0E0,0E0,0E0,0E0,0E0,0E0,0E0,0E0,0E0],"parents":[2147483647,0,0,1,1,2,2,3,3,4,4,5,5,6,6,7,7,8,8,9,9,10,10,13,13,14,14],"right_children":[2,4,6,8,10,12,14,16,18,20,22,-1,-1,24,26,-1,-1,-1,-1,-1,-1,-1,-1,-1,-1,-1,-1],"split_conditions":[1.5E0,1.487661E3,-5E-1,6.5E-1,-1.03942345E2,1.5179724E3,2.5E-1,-5E-1,1.4579291E3,1.6118226E3,1.4667437E3,-6.1487005E-4,-2.459978E-2,1.5501564E3,5E-1,8.188243E-3,-1.4422662E-2,4.269892E-2,-1.0589806E-2,-1.8985633E-2,2.796888E-3,1.5561387E-3,1.7773768E-2,3.458685E-2,7.217447E-3,-1.3297136E-2,1.4555508E-2],"split_indices":[3,1,5,5,2,0,5,5,1,1,0,0,0,0,6,0,0,0,0,0,0,0,0,0,0,0,0],"split_type":[0,0,0,0,0,0,0,0,0,0,0,0,0,0,0,0,0,0,0,0,0,0,0,0,0,0,0],"sum_hessian":[1.5564735E2,8.981982E1,6.582754E1,3.9551617E1,5.0268204E1,3.1047359E0,6.27228E1,3.4914646E1,4.63697E0,5.5447674E0,4.472344E1,1.3182771E0,1.7864586E0,2.0473429E1,4.224937E1,1.2384867E1,2.252978E1,2.4205763E0,2.2163935E0,4.3295608E0,1.2152066E0,1.3815056E1,3.090838E1,1.6018328E1,4.4551005E0,5.998343E0,3.625103E1],"tree_param":{"num_deleted":"0","num_feature":"7","num_nodes":"27","size_leaf_vector":"1"}},{"base_weights":[-2.2470565E-1,-6.3099556E-2,-2.8997082E-1,-2.412022E-1,6.140423E-2,-5.1675564E-1,-2.5445658E-1,2.0714808E-2,-3.2801342E-1,-2.5849018E-2,1.7473628E-1,-1.5189879E-3,-2.9527983E-2,-1.8911946E-1,-4.390588E-1,-2.0172363E-2,1.0913962E-3,-5.895486E-3,1.678149E-2,-1.1308015E-2,4.328188E-2,1.670714E-2,-2.6107544E-2],"categories":[],"categories_nodes":[],"categories_segments":[],"categories_sizes":[],"default_left":[0,0,0,0,0,0,0,0,0,0,0,0,0,0,0,0,0,0,0,0,0,0,0],"id":46,"left_children":[1,3,5,7,9,11,13,-1,15,-1,17,-1,-1,19,21,-1,-1,-1,-1,-1,-1,-1,-1],"loss_changes":[1.3530645E0,8.725598E-1,6.122141E-1,1.0530889E0,1.6349275E0,3.9602542E-1,9.0366745E-1,0E0,3.9914548E-1,0E0,1.0024785E0,0E0,0E0,2.6250167E0,1.4997962E0,0E0,0E0,0E0,0E0,0E0,0E0,0E0,0E0],"parents":[2147483647,0,0,1,1,2,2,3,3,4,4,5,5,6,6,8,8,10,10,13,13,14,14],"right_children":[2,4,6,8,10,12,14,-1,16,-1,18,-1,-1,20,22,-1,-1,-1,-1,-1,-1,-1,-1],"split_conditions":[1.4727916E3,3.75E-1,1.484E3,1.4065193E3,1.4323197E3,7.5E-1,1.5541982E3,2.0714808E-2,1E-1,-2.5849018E-2,1.470959E3,-1.5189879E-3,-2.9527983E-2,1.5516143E3,1.25E-1,-2.0172363E-2,1.0913962E-3,-5.895486E-3,1.678149E-2,-1.1308015E-2,4.328188E-2,1.670714E-2,-2.6107544E-2],"split_indices":[0,6,0,0,0,4,0,0,5,0,1,0,0,0,6,0,0,0,0,0,0,0,0],"split_type":[0,0,0,0,0,0,0,0,0,0,0,0,0,0,0,0,0,0,0,0,0,0,0],"sum_hessian":[1.290208E2,3.768185E1,9.133895E1,1.51181E1,2.256375E1,1.0532222E1,8.080673E1,1.3268532E0,1.3791246E1,3.113338E0,1.9450413E1,1.5736082E0,8.958613E0,6.117814E1,1.962859E1,1.1218954E1,2.572292E0,6.9948235E0,1.2455588E1,5.986151E1,1.3166296E0,1.6115141E0,1.8017076E1],"tree_param":{"num_deleted":"0","num_feature":"7","num_nodes":"23","size_leaf_vector":"1"}},{"base_weights":[1.0454083E-2,2.0383227E-1,-5.450162E-2,1.18735254E-1,5.619117E-1,1.5035886E-1,-1.3330634E-1,2.7062383E-1,-2.5854582E-1,7.1471804E-1,-1.3445955E-3,3.8343143E-1,-2.0075472E-2,-1.9403204E-1,1.58099E-1,5.132602E-3,3.0366382E-2,-2.0342065E-2,1.6773202E-2,1.3601052E-2,4.0536467E-2,-8.770823E-3,3.0686697E-2,-2.6948502E-2,6.1623156E-3,-2.2978598E-2,-5.694371E-3,2.7043132E-2,-4.1881623E-3],"categories":[],"categories_nodes":[],"categories_segments":[],"categories_sizes":[],"default_left":[0,0,0,0,0,0,0,0,0,0,0,0,0,0,0,0,0,0,0,0,0,0,0,0,0,0,0,0,0],"id":47,"left_children":[1,3,5,7,9,11,13,15,17,19,-1,21,23,25,27,-1,-1,-1,-1,-1,-1,-1,-1,-1,-1,-1,-1,-1,-1],"loss_changes":[1.843042E0,1.0571249E0,1.7952502E0,1.8503004E0,6.322937E-1,1.239846E0,1.4453287E0,1.2180423E0,9.6706015E-1,1.0951281E-2,0E0,1.8002783E0,1.4695307E0,1.3651328E0,1.3725982E0,0E0,0E0,0E0,0E0,0E0,0E0,0E0,0E0,0E0,0E0,0E0,0E0,0E0,0E0],"parents":[2147483647,0,0,1,1,2,2,3,3,4,4,5,5,6,6,7,7,8,8,9,9,11,11,12,12,13,13,14,14],"right_children":[2,4,6,8,10,12,14,16,18,20,-1,22,24,26,28,-1,-1,-1,-1,-1,-1,-1,-1,-1,-1,-1,-1,-1,-1],"split_conditions":[1.4674763E3,1.4613857E3,5E-1,1.4550364E3,1.4975237E3,1.4663279E3,1.5356556E3,1.445953E3,2.6E0,1.4641641E3,-1.3445955E-3,-1.2E0,1.5014989E3,1.4735292E3,1.5699613E3,5.132602E-3,3.0366382E-2,-2.0342065E-2,1.6773202E-2,1.3601052E-2,4.0536467E-2,-8.770823E-3,3.0686697E-2,-2.6948502E-2,6.1623156E-3,-2.2978598E-2,-5.694371E-3,2.7043132E-2,-4.1881623E-3],"split_indices":[1,1,6,1,0,0,1,1,3,0,0,5,1,0,1,0,0,0,0,0,0,0,0,0,0,0,0,0,0],"split_type":[0,0,0,0,0,0,0,0,0,0,0,0,0,0,0,0,0,0,0,0,0,0,0,0,0,0,0,0,0],"sum_hessian":[1.4484274E2,3.58818E1,1.0896094E2,3.0067822E1,5.81398E0,3.001807E1,7.894286E1,2.1638952E1,8.428868E0,4.4462433E0,1.3677368E0,1.2151248E1,1.7866821E1,6.560554E1,1.3337331E1,1.53074045E1,6.331548E0,6.99712E0,1.4317489E0,1.4756076E0,2.970636E0,3.6157231E0,8.535525E0,3.2694094E0,1.4597412E1,1.4112589E1,5.1492947E1,4.685679E0,8.651651E0],"tree_param":{"num_deleted":"0","num_feature":"7","num_nodes":"29","size_leaf_vector":"1"}},{"base_weights":[1.6988045E-1,-2.4829112E-2,1.8573414E-1,6.7014284E-3,2.4375866E-1,-1.0739641E-1,4.3935502E-1,1.4103638E-1,3.4123722E-1,2.8945314E-4,-2.3615189E-2,3.546719E-2,5.373969E-3,1.2878616E-2,-5.573621E-3,2.825212E-2,1.1629683E-2],"categories":[],"categories_nodes":[],"categories_segments":[],"categories_sizes":[],"default_left":[0,0,0,0,0,0,0,0,0,0,0,0,0,0,0,0,0],"id":48,"left_children":[1,-1,3,5,7,9,11,13,15,-1,-1,-1,-1,-1,-1,-1,-1],"loss_changes":[1.7479892E0,0E0,1.5960274E0,1.9562497E0,1.1146269E0,1.2998642E0,6.644827E-1,1.7426406E0,1.3001733E0,0E0,0E0,0E0,0E0,0E0,0E0,0E0,0E0],"parents":[2147483647,0,0,2,2,3,3,4,4,5,5,6,6,7,7,8,8],"right_children":[2,-1,4,6,8,10,12,14,16,-1,-1,-1,-1,-1,-1,-1,-1],"split_conditions":[-1.232862E2,-2.4829112E-2,1.4690089E3,1.5642012E3,-1.2148285E1,1.4610087E3,1.25E0,-3.015255E1,1.1920315E1,2.8945314E-4,-2.3615189E-2,3.546719E-2,5.373969E-3,1.2878616E-2,-5.573621E-3,2.825212E-2,1.1629683E-2],"split_indices":[2,0,1,0,2,1,4,2,2,0,0,0,0,0,0,0,0],"split_type":[0,0,0,0,0,0,0,0,0,0,0,0,0,0,0,0,0],"sum_hessian":[1.557078E2,2.9133298E0,1.5279446E2,3.767256E1,1.15121895E2,3.040582E1,7.2667403E0,5.7244663E1,5.787723E1,2.3958582E1,6.4472394E0,3.3798075E0,3.8869328E0,3.9154377E1,1.8090286E1,1.754132E1,4.033591E1],"tree_param":{"num_deleted":"0","num_feature":"7","num_nodes":"17","size_leaf_vector":"1"}},{"base_weights":[-2.1859843E-1,-3.741902E-2,-2.7441746E-1,-1.2444898E-1,3.4589E-1,-5.0236905E-1,-2.2482342E-1,-3.0134988E-1,1.642256E-1,-2.1797404E-2,3.965883E-2,-7.184696E-2,-2.9989898E-2,1.1272112E-1,-2.9614466E-1,-2.8490767E-2,-6.273528E-3,2.6342442E-2,-7.941383E-3,1.9796064E-2,-2.1711512E-2,-3.520367E-3,3.0573983E-2,-2.9956812E-2,-1.1169094E-2],"categories":[],"categories_nodes":[],"categories_segments":[],"categories_sizes":[],"default_left":[0,0,0,0,0,0,0,0,0,0,0,0,0,0,0,0,0,0,0,0,0,0,0,0,0],"id":49,"left_children":[1,3,5,7,9,11,13,15,17,-1,-1,19,-1,21,23,-1,-1,-1,-1,-1,-1,-1,-1,-1,-1],"loss_changes":[1.293448E0,1.0945253E0,9.9937916E-1,1.3988204E0,2.4779072E0,6.6038704E-1,2.0223937E0,7.1873367E-1,1.3356173E0,0E0,0E0,8.891414E-1,0E0,1.4255598E0,1.375998E0,0E0,0E0,0E0,0E0,0E0,0E0,0E0,0E0,0E0,0E0],"parents":[2147483647,0,0,1,1,2,2,3,3,4,4,5,5,6,6,7,7,8,8,11,11,13,13,14,14],"right_children":[2,4,6,8,10,12,14,16,18,-1,-1,20,-1,22,24,-1,-1,-1,-1,-1,-1,-1,-1,-1,-1],"split_conditions":[1.467713E3,1.4642385E3,-2.9160217E1,1.5E0,-4.5239048E1,-1.0740879E2,-8.2186365E0,-6.1379017E1,1.4467346E3,-2.1797404E-2,3.965883E-2,1.4884275E3,-2.9989898E-2,1.5012946E3,1.1920315E1,-2.8490767E-2,-6.273528E-3,2.6342442E-2,-7.941383E-3,1.9796064E-2,-2.1711512E-2,-3.520367E-3,3.0573983E-2,-2.9956812E-2,-1.1169094E-2],"split_indices":[0,0,2,4,2,2,2,2,0,0,0,0,0,0,2,0,0,0,0,0,0,0,0,0,0],"split_type":[0,0,0,0,0,0,0,0,0,0,0,0,0,0,0,0,0,0,0,0,0,0,0,0,0],"sum_hessian":[1.2791157E2,3.0519773E1,9.739179E1,2.5422867E1,5.096908E0,1.5771383E1,8.162041E1,1.5735923E1,9.686943E0,1.8640234E0,3.2328846E0,3.231104E0,1.2540279E1,1.4136352E1,6.7484055E1,5.3419943E0,1.0393929E1,4.2667394E0,5.420204E0,1.3700631E0,1.8610407E0,1.0968059E1,3.168292E0,1.1667077E1,5.5816982E1],"tree_param":{"num_deleted":"0","num_feature":"7","num_nodes":"25","size_leaf_vector":"1"}},{"base_weights":[1.0709371E-2,1.7770515E-1,-6.0402762E-2,1.0737067E-1,5.8238953E-1,-1.9657433E-1,8.286004E-2,3.0231395E-1,-1.5225725E-1,4.4858187E-2,1.968627E-3,-1.2968588E-1,-5.079124E-1,4.4896176E-1,7.53522E-3,-1.2104159E-2,1.8817645E-2,2.365735E-2,-1.3109622E-2,-1.2971923E-2,8.222691E-3,-1.179187E-3,-3.0288441E-2,4.5620304E-2,-1.546743E-2,-5.5224844E-3,1.0078927E-2],"categories":[],"categories_nodes":[],"categories_segments":[],"categories_sizes":[],"default_left":[0,0,0,0,0,0,0,0,0,0,0,0,0,0,0,0,0,0,0,0,0,0,0,0,0,0,0],"id":50,"left_children":[1,3,5,7,9,11,13,15,17,-1,-1,19,21,23,25,-1,-1,-1,-1,-1,-1,-1,-1,-1,-1,-1,-1],"loss_changes":[1.7386764E0,1.1815891E0,2.021666E0,1.9927863E0,1.0322771E0,1.0378282E0,1.3974272E0,9.900861E-1,1.3038921E0,0E0,0E0,1.758926E0,4.1368032E-1,3.3224893E0,1.0100616E0,0E0,0E0,0E0,0E0,0E0,0E0,0E0,0E0,0E0,0E0,0E0,0E0],"parents":[2147483647,0,0,1,1,2,2,3,3,4,4,5,5,6,6,7,7,8,8,11,11,12,12,13,13,14,14],"right_children":[2,4,6,8,10,12,14,16,18,-1,-1,20,22,24,26,-1,-1,-1,-1,-1,-1,-1,-1,-1,-1,-1,-1],"split_conditions":[1.4703928E3,2.2E0,1.5090532E3,1.4932008E3,1.580731E3,2.2E0,1.4607903E3,-7E-1,4E-1,4.4858187E-2,1.968627E-3,1.5010887E3,3.0564127E1,2E0,1.5579976E3,-1.2104159E-2,1.8817645E-2,2.365735E-2,-1.3109622E-2,-1.2971923E-2,8.222691E-3,-1.179187E-3,-3.0288441E-2,4.5620304E-2,-1.546743E-2,-5.5224844E-3,1.0078927E-2],"split_indices":[1,3,1,0,0,3,0,5,6,0,0,0,2,4,1,0,0,0,0,0,0,0,0,0,0,0,0],"split_type":[0,0,0,0,0,0,0,0,0,0,0,0,0,0,0,0,0,0,0,0,0,0,0,0,0,0,0],"sum_hessian":[1.4450572E2,4.27097E1,1.0179603E2,3.7463783E1,5.245918E0,5.1998875E1,4.9797153E1,2.13035E1,1.6160282E1,2.908022E0,2.3378959E0,4.396903E1,8.029846E0,7.6509323E0,4.214622E1,2.2787223E0,1.9024778E1,1.9220667E0,1.4238215E1,3.0592058E1,1.337697E1,1.558288E0,6.471558E0,4.622602E0,3.02833E0,2.647769E1,1.5668533E1],"tree_param":{"num_deleted":"0","num_feature":"7","num_nodes":"27","size_leaf_vector":"1"}},{"base_weights":[1.631717E-1,-2.4524061E-2,1.7851122E-1,6.5248264E-3,2.3405959E-1,-1.0492009E-1,4.2651576E-1,1.506136E-1,3.4945408E-1,2.8706534E-4,-2.3268124E-2,3.0252269E-2,-4.0924485E-4,4.855515E-3,2.6571661E-2,2.1189509E-2,-5.739738E-3],"categories":[],"categories_nodes":[],"categories_segments":[],"categories_sizes":[],"default_left":[0,0,0,0,0,0,0,0,0,0,0,0,0,0,0,0,0],"id":51,"left_children":[1,-1,3,5,7,9,11,13,15,-1,-1,-1,-1,-1,-1,-1,-1],"loss_changes":[1.6594944E0,0E0,1.4688935E0,1.8516308E0,1.0673361E0,1.2515714E0,6.4853406E-1,1.359495E0,1.7069902E0,0E0,0E0,0E0,0E0,0E0,0E0,0E0,0E0],"parents":[2147483647,0,0,2,2,3,3,4,4,5,5,6,6,7,7,8,8],"right_children":[2,-1,4,6,8,10,12,14,16,-1,-1,-1,-1,-1,-1,-1,-1],"split_conditions":[-1.232862E2,-2.4524061E-2,1.4690089E3,1.5642012E3,1.6E0,1.4610087E3,2.3333333E0,2.6E0,1.5403058E3,2.8706534E-4,-2.3268124E-2,3.0252269E-2,-4.0924485E-4,4.855515E-3,2.6571661E-2,2.1189509E-2,-5.739738E-3],"split_indices":[2,0,1,0,3,1,3,4,1,0,0,0,0,0,0,0,0],"split_type":[0,0,0,0,0,0,0,0,0,0,0,0,0,0,0,0,0],"sum_hessian":[1.5577486E2,2.8615723E0,1.5291328E2,3.7603737E1,1.1530954E2,3.03109E1,7.2928357E0,6.8256195E1,4.705335E1,2.394384E1,6.3670588E0,4.891891E0,2.400945E0,6.0948257E1,7.307933E0,4.0634117E1,6.4192348E0],"tree_param":{"num_deleted":"0","num_feature":"7","num_nodes":"17","size_leaf_vector":"1"}},{"base_weights":[-2.1272832E-1,1.7188239E-1,-2.3749901E-1,5.046273E-1,-2.4196094E-2,-1.7311719E-1,-4.1940197E-1,-5.0841444E-3,4.5315858E-2,-2.0917712E-1,3.1995398E-1,-3.011745E-2,-2.2220516E-1,1.9312516E-2,-2.0429276E-2,-4.9780845E-3,-1.8739687E-2,2.5685186E-2,-5.093295E-3,1.40876835E-2,-2.5400339E-2],"categories":[],"categories_nodes":[],"categories_segments":[],"categories_sizes":[],"default_left":[0,0,0,0,0,0,0,0,0,0,0,0,0,0,0,0,0,0,0,0,0],"id":52,"left_children":[1,3,5,7,-1,9,11,13,-1,15,17,-1,19,-1,-1,-1,-1,-1,-1,-1,-1],"loss_changes":[1.2584949E0,2.0583856E0,1.3385768E0,1.234079E0,0E0,1.6796067E0,9.7719574E-1,7.327442E-1,0E0,1.5080516E0,5.898146E-1,0E0,2.5060806E0,0E0,0E0,0E0,0E0,0E0,0E0,0E0,0E0],"parents":[2147483647,0,0,1,1,2,2,3,3,5,5,6,6,7,7,9,9,10,10,12,12],"right_children":[2,4,6,8,-1,10,12,14,-1,16,18,-1,20,-1,-1,-1,-1,-1,-1,-1,-1],"split_conditions":[-1.03942345E2,1.6118226E3,1.5149576E3,1.4515549E3,-2.4196094E-2,1.5103954E3,-2.9160217E1,1.5514872E3,4.5315858E-2,1.5E0,1.5131013E3,-3.011745E-2,-1.5966092E1,1.9312516E-2,-2.0429276E-2,-4.9780845E-3,-1.8739687E-2,2.5685186E-2,-5.093295E-3,1.40876835E-2,-2.5400339E-2],"split_indices":[2,1,1,0,0,1,2,1,0,3,1,0,2,0,0,0,0,0,0,0,0],"split_type":[0,0,0,0,0,0,0,0,0,0,0,0,0,0,0,0,0,0,0,0,0],"sum_hessian":[1.268118E2,7.3137307E0,1.1949807E2,5.004863E0,2.3088682E0,8.9701324E1,2.979674E1,2.640997E0,2.3638656E0,8.412477E1,5.5765576E0,1.4391052E1,1.5405687E1,1.3624158E0,1.2785811E0,5.1584244E1,3.2540524E1,3.672077E0,1.9044809E0,5.580196E0,9.825491E0],"tree_param":{"num_deleted":"0","num_feature":"7","num_nodes":"21","size_leaf_vector":"1"}},{"base_weights":[1.1073433E-2,1.9308488E-1,-5.0507218E-2,1.1101192E-1,5.387448E-1,1.4595236E-1,-1.2665087E-1,1.9182771E-1,-2.7403561E-2,6.8396074E-1,-1.2272069E-3,3.6951622E-1,-1.8356858E-2,-1.8566324E-1,1.5335616E-1,1.2381507E-2,-1.3227108E-2,1.2928977E-2,